MTP
version = 1.1.0
potential_name = MTP1m
scaling = 2.777777777777778e-02
species_count = 3
potential_tag = 
radial_basis_type = RBChebyshev
	min_dist = 2.000000000000000e-01
	max_dist = 6.000000000000000e+00
	radial_basis_size = 8
	radial_funcs_count = 8
	radial_coeffs
		0-0
			{1.041427012041232e-01, 3.320873601642319e-02, 3.861728669731100e-02, 3.374587463822908e-02, 2.433217442262299e-03, -2.299659421027280e-03, 1.234935305341237e-04, -3.317861319744905e-03}
			{-5.897036338259128e-02, 1.911521203512346e-02, -5.553253373123529e-02, -3.518843320833183e-03, -2.954060349335274e-02, -6.225974877893821e-03, -9.432793885447819e-03, -9.432799628656413e-04}
			{1.130113189694421e-01, -5.434080358009279e-02, 9.095639456481514e-02, -2.741749534109723e-02, 3.017044598000416e-02, -1.057353214983123e-02, 1.004832776012938e-02, -1.249068076920207e-03}
			{-1.117588850264141e-02, 5.840630494899740e-02, 7.516826898769689e-02, -1.093770721344048e-02, 5.786078116447225e-02, 8.841001467803102e-04, 7.299519432217635e-03, 9.535187646947954e-03}
			{2.117062483180082e-02, 9.765561926883001e-02, -6.246707737807119e-04, 4.899424172966112e-02, 2.145793212961036e-03, 1.909047552329114e-02, -1.762190208076265e-04, 6.037103874611214e-03}
			{2.668360706041709e-02, 8.706071586731538e-02, 9.927755143510851e-03, 3.978793708002689e-02, 6.537730255141313e-03, 1.525146023525063e-02, 7.921296359808963e-04, 5.661998820741801e-03}
			{-1.693716053399262e-02, 3.712613859121433e-02, -2.056715687858110e-02, 1.853611639221698e-02, -8.199927925618333e-03, 6.668788579666189e-03, -2.647443140450016e-03, 1.636651511562021e-03}
			{5.703608522215491e-02, -6.444605821697917e-02, 4.186004210505027e-02, -2.608270385170215e-02, 1.049112471954708e-02, -8.429365959816575e-03, 3.245937180640099e-03, -1.551912470384635e-03}
		0-1
			{8.939583474287013e-02, -7.162625383263785e-04, -8.914071678167367e-04, 3.916553742951248e-02, -4.000744057604811e-02, 1.955152796211842e-02, 6.719605054821590e-03, -7.108621467385912e-03}
			{6.494303608832006e-02, 1.839630139174757e-01, 4.802980221953282e-02, 8.015048801253498e-02, 3.604285551996721e-02, 1.029229333314212e-02, 1.991685754932788e-02, 4.180172962875767e-03}
			{-5.628273799627441e-02, -9.986107079850150e-02, -7.642159951765382e-02, -7.043796379336527e-02, -5.709136760114238e-02, -5.485062818580796e-02, -5.168425260993378e-03, -4.188745859917481e-02}
			{1.202575448292943e-01, -2.688674402543908e-02, 2.395481410666829e-01, -1.078706607880614e-01, 1.921391818235346e-01, -5.871230169716238e-02, 7.033284387244806e-02, 2.280168088359443e-02}
			{3.330413422158014e-02, -1.695939522969019e-01, 3.431778952022293e-02, -1.016569770923870e-01, 8.901437503322486e-03, -3.202550707365890e-02, 5.741035153190666e-03, -1.763261996480064e-03}
			{2.631745779209259e-02, -1.412270811732050e-01, 2.735800426298858e-02, -9.212908839244130e-02, 8.078339199513382e-03, -3.447871134970095e-02, 7.910951759398783e-03, -4.687027083069329e-03}
			{1.849707520107096e-02, -2.364434160987680e-03, 1.634527674147963e-02, -1.480310135913391e-03, 8.391179513226850e-03, 5.217659230626304e-03, 1.869129749019900e-03, 7.041238441658399e-03}
			{4.942330071666026e-02, -1.477274607131233e-01, 5.199599543827121e-02, -9.748408959508384e-02, 2.469882095830109e-02, -6.186946052778704e-02, 1.749217171997575e-02, -2.842208339556146e-02}
		0-2
			{6.850056365220179e-02, 2.224200148535679e-01, -6.843499667216651e-02, 1.301376325771738e-01, 1.371157541179870e-02, 2.888611834959081e-02, 1.019594688552360e-02, 1.855614705982014e-02}
			{1.188026430426792e-01, -3.193019759018209e-01, 2.367025768959799e-01, -3.269449224971256e-01, 1.895446038470212e-01, -2.116707388411549e-01, 6.884830418692983e-02, -4.989155945294976e-02}
			{-9.858126177887862e-02, 1.188543012234357e-01, -2.975148653572750e-01, 1.556160584734956e-01, -1.616054795622275e-01, 5.373224523926245e-02, -4.505372148368104e-02, 6.655944009399105e-03}
			{-2.426645193519190e-01, 7.826082040239206e-02, -1.597027852167295e-01, -1.707563455148227e-01, 3.618919147709423e-02, -1.905152188658608e-01, 5.336343989362029e-02, -4.983687831924613e-02}
			{9.186400271400345e-02, -9.556227355744364e-02, 1.496319720852940e-01, -7.427056269461796e-02, 8.252661249612515e-02, 2.469655199159410e-03, 1.108232150526934e-02, 2.191337462288972e-02}
			{6.781649805697793e-02, -1.029438373944609e-01, 1.090593783954417e-01, -9.033619396282834e-02, 7.132201061190248e-02, -2.351830463903306e-02, 1.319392186986846e-02, 1.173209770424584e-02}
			{-1.045874200795799e-02, 5.548782429133665e-02, 5.370359671074869e-03, 1.387002118314661e-02, 1.013165974155660e-02, 9.170651855927737e-03, 2.541370073443324e-03, 6.075808065642170e-03}
			{6.631433400620697e-02, -7.950496755309371e-02, 4.342184221655242e-02, -1.959265355897303e-02, 2.945759618033176e-02, -1.201746943923674e-03, 3.381073011781077e-03, 7.313112139250993e-03}
		1-0
			{1.635146140928049e-01, 1.214282828865077e-01, 1.120187176061829e-01, 1.057069136766156e-01, 4.378386530675460e-02, 3.897296144140651e-02, 1.329754466161756e-02, 2.365199658034334e-03}
			{3.988835243208215e-02, 1.391593380376549e-01, -2.839404346125646e-03, 5.031792003939263e-02, 1.342898574862612e-02, -9.176760239098962e-03, 1.403659352578973e-02, -6.754762784987867e-03}
			{7.919612398024456e-02, 5.964900975536164e-02, 2.475096757884524e-02, 5.693134511211594e-02, -2.601724760775348e-02, 2.060975461684728e-02, -9.190072108305771e-03, -4.622195554428252e-03}
			{-2.785435409937843e-02, 1.012111393330695e-01, -1.125768951056091e-01, 7.346217916946841e-02, -2.192209218101594e-02, 3.701673364545462e-02, -1.363399207513105e-02, 5.194916396564095e-03}
			{9.100109677312369e-02, -1.216818278246268e-01, 1.268234771206934e-01, -6.865749959048446e-02, 9.313768990268752e-02, -2.998374109599260e-02, 2.377655201779963e-02, -6.351417374052605e-03}
			{8.665742163439145e-02, -7.998517216079232e-02, 1.019648521103934e-01, -4.165777664232016e-02, 7.279476175466131e-02, -2.064435358774806e-02, 1.880957539545731e-02, -5.977857221345508e-03}
			{2.282606804995109e-02, -3.286954533974586e-02, 3.944833024056564e-02, -2.476008545868079e-02, 3.427848079656689e-02, -1.373042383599257e-02, 1.040614319119557e-02, -2.287990617885929e-03}
			{5.488986816013496e-02, -2.561636226699502e-02, 3.547356224138038e-02, -2.737395661526694e-02, 2.453673751451849e-02, -2.026944268740678e-02, 5.129752828358104e-03, -9.273666833010322e-03}
		1-1
			{7.810149444754276e-02, 1.569243236154183e-01, 1.367338511035323e-01, -6.124370053185062e-03, 1.467288601795006e-01, -1.045997322455477e-01, 8.582355116821343e-02, -2.745180375273813e-02}
			{1.149104485764834e-01, 1.224733707854245e-01, 9.507893908952385e-02, 1.633629620104961e-01, -6.511747376397781e-02, 9.432074133467351e-02, -1.376198605502418e-02, 7.552459904288694e-03}
			{-6.123642867783956e-02, 1.868796715359041e-02, 2.930159089503721e-02, -1.104815907146888e-01, 5.043975367545941e-02, -7.483026417887545e-02, 1.799308727132150e-02, -2.211022546255637e-02}
			{-7.041545865949612e-02, -2.282184408749135e-02, -4.828277685938867e-02, 4.913297035634678e-02, -4.052107557344594e-03, -1.934348136608538e-02, 1.860733329001871e-02, -1.767434398031323e-02}
			{-5.131148037601738e-02, -2.937599468627365e-01, -1.025023104736793e-01, -1.490816880281004e-01, -4.860507594319584e-04, -1.627807652840908e-01, 4.779798529359616e-02, -6.010877098478943e-02}
			{-2.430734819992418e-01, 1.070151525587054e-01, -3.673242301188291e-01, 5.142508894224630e-02, -1.062165905524922e-01, -1.024287602314875e-01, 2.761744780495413e-02, -5.413568574406254e-02}
			{2.160102904102373e-01, -4.627098847655949e-01, 2.784160553591278e-01, -2.070158409297863e-01, 8.682926807179528e-02, -6.677998049016966e-02, 2.016334075497879e-02, -1.476967079432661e-02}
			{1.618397984547075e-01, -1.648018807607042e-01, 2.207294431613882e-01, -1.986567774126533e-02, 4.963027849191905e-02, 3.332383973707817e-02, 2.538597971014003e-03, 1.621899847791033e-02}
		1-2
			{9.178079663276296e-02, -2.373448888067672e-02, -7.513284163226484e-02, -3.732978549445349e-03, -1.363554307379025e-02, 1.426708698581825e-02, -8.098080955781383e-03, 1.035740314930773e-02}
			{-2.456656808764624e-02, 1.296057999061173e-01, -8.144102682893634e-02, -5.256747521111352e-02, 2.896572133881636e-02, -4.692471636673799e-02, -4.475054345870320e-03, -1.518126085003825e-03}
			{-5.111521347470624e-02, 6.572048911974181e-02, -4.687251774593631e-02, -4.978611391130740e-02, -9.557593486985835e-03, 3.151186378664318e-02, -3.756847120523202e-02, 2.560666797209539e-02}
			{-5.290133845490104e-02, -7.879180784233349e-02, -1.866377270126436e-01, -1.787852248205405e-02, -1.226714765224794e-01, -2.173313095182361e-02, 2.116684093159496e-02, -4.599679732557688e-02}
			{-5.521766129008692e-02, 2.748730443931707e-02, -1.421418633302521e-01, 9.739925102517115e-02, -6.176194986407266e-02, 3.200096121925838e-02, 4.930682174506967e-03, -2.042007914776836e-03}
			{2.586550909639575e-02, -1.234946955219646e-01, -9.915615826074047e-03, -2.419227933005763e-02, 2.414260064574577e-03, -5.128467728565385e-03, 1.198239009975530e-02, -3.451213278627674e-03}
			{-2.064014598992012e-01, 3.824904294322522e-01, -3.364095108007143e-01, 2.369077957183610e-01, -1.279560852097636e-01, 5.616023607836422e-02, -1.338477684503033e-02, 2.153690834091020e-03}
			{1.893085969602714e-01, -3.414076545508051e-01, 2.342062328883976e-01, -1.949095518617210e-01, 6.519703260731237e-02, -1.634576584986691e-02, -5.663532568674706e-03, 3.045726995299321e-03}
		2-0
			{-1.408397761171530e-02, 2.000215732495627e-01, -2.006299814272863e-01, 1.998396850668627e-01, -1.293654223124724e-01, 6.159904529477595e-02, -2.592868537357278e-02, -7.536843420342970e-04}
			{1.830287989772376e-01, 8.873101504520753e-02, 2.324355074244609e-01, 1.099763074477623e-01, 1.017314938313824e-01, 8.881851347162494e-02, 1.139588945605637e-02, 3.446771174318190e-02}
			{-4.946806815964470e-02, -1.092682622810664e-01, -1.052859433661578e-01, -8.846190556021791e-02, -2.028400891794730e-02, -6.559287927845710e-02, 3.230887810579060e-03, -1.874304040721991e-02}
			{5.467677371118292e-02, 1.046699276020872e-01, 6.888618476309738e-02, 8.139077701361216e-02, -4.319896264180628e-02, 6.288246314340178e-02, -1.449631977782943e-02, 5.483140104276727e-03}
			{-1.370062257221236e-01, 2.379120571763670e-01, -2.264884653429881e-01, 1.291562450979459e-01, -1.034401435349063e-01, 1.150505484367713e-02, -9.040669280964770e-03, -1.461620085178151e-02}
			{-1.122819223261830e-01, 2.350939481850783e-01, -1.969505864371191e-01, 1.338913203850122e-01, -9.092167296946542e-02, 1.974518548656716e-02, -7.948899090890459e-03, -1.058233809351284e-02}
			{5.077412819168776e-02, -3.152813036716367e-02, 7.929007730660677e-02, -1.714531409874389e-02, 3.744845874456392e-02, -6.374252274215937e-03, 1.010229074239290e-02, -1.210997553003586e-03}
			{-8.048392279569584e-03, -1.880886229686536e-01, -2.060717973250353e-02, -1.304528222250256e-01, -8.300671496310220e-04, -6.413129343845964e-02, 1.394544106173594e-03, -1.606619753596022e-02}
		2-1
			{-1.768140157823372e-01, -1.755547213371545e-01, -2.878522646422573e-01, -2.893352794583750e-01, 4.992190933109489e-02, -3.555828861279022e-01, 1.131977231682671e-01, -1.104946430757759e-01}
			{-1.613836361418680e-01, 1.416085518788040e-01, -1.683341284693051e-01, -1.644585059586719e-01, 4.179620853872511e-02, -1.844828962343484e-01, 3.894653214074149e-02, -7.316620512266932e-02}
			{-7.144120932220789e-02, 1.432420318175034e-02, -1.011263073732055e-01, -3.817920864591016e-02, 3.359326648223616e-02, -5.397146910748013e-02, 1.962033539337993e-02, -6.720878436856870e-03}
			{8.872876297173170e-02, -5.643365381661249e-02, 1.297432573411990e-02, 1.089981518235989e-01, -2.929352737228057e-01, 3.078450908780370e-01, -1.862460020735968e-01, 4.911043226756986e-02}
			{-9.683856587585335e-02, 7.089371597618895e-02, -1.791567540823589e-01, 7.816193223276396e-02, -1.454446019731809e-01, 6.184288254508418e-02, -4.151425176216910e-02, 9.298582438247846e-03}
			{-6.488827699303899e-02, -1.937231820320583e-02, -1.199675033148696e-01, -3.209750105911552e-03, -1.119809956679919e-01, 3.083037583718757e-02, -3.544638769318704e-02, -8.413931405112677e-04}
			{-5.413672340802063e-02, 6.565619592315224e-02, -7.635077038109371e-02, 1.874824710492494e-02, -4.051135167210061e-02, -1.247110029058138e-03, -5.823619460301854e-03, -6.627611322880992e-03}
			{-2.010887130686434e-01, 4.637951431125246e-01, -3.516347464313477e-01, 2.760250662690883e-01, -6.568825263308573e-02, 2.844931015278002e-02, 2.872918150949990e-03, 1.638556676352640e-02}
		2-2
			{2.395469709687310e-01, -5.616255655781244e-02, 3.741593934566590e-02, 2.059182947291045e-01, -1.768636636894702e-01, 2.130366276944989e-01, -1.202247610828203e-01, 5.286337297616676e-02}
			{-1.273363761817531e-01, -2.860367847512301e-02, -2.671026267372755e-01, -2.510954649075055e-01, -2.160005106599569e-02, -4.179522985351390e-02, -1.219473620896900e-01, -7.503032907735775e-02}
			{-2.816188945109184e-01, -2.880977616804748e-01, -4.895556921789362e-01, -3.055335012647141e-01, -2.170521948287955e-01, -2.858614586065004e-01, 2.696870554284253e-02, -1.843702166264441e-01}
			{5.639063518935144e-04, -2.313370926627930e-01, -1.288878252128227e-01, 8.957157330869508e-02, -2.528083322200060e-01, 2.724158690761016e-01, -2.915679624914163e-01, 1.282016566389919e-01}
			{-2.542225889177561e-01, 4.902895140574658e-01, -2.713660968819946e-01, 1.578863569977914e-01, -1.810361975512090e-02, -7.353128045361987e-02, 3.614659833218434e-02, 2.838782708238532e-02}
			{1.382195816656693e-01, -3.973368103399831e-01, 2.843445919532445e-01, -3.547005068432523e-01, 1.922738792848234e-01, -2.099581946102520e-01, 5.314390486567684e-02, -1.004032807195887e-02}
			{1.555266684096026e-01, -2.477998948268995e-01, 2.502693558792581e-01, -1.573605908017756e-01, 1.176985056583197e-01, -4.579817774480145e-02, 8.313999988150812e-03, 1.661217542156615e-02}
			{1.253555179065561e-01, -1.204935746558724e-01, 7.329180145484253e-02, 5.060925170029956e-02, -1.062640295739136e-01, 3.690438315342571e-02, -4.707902508675525e-02, -5.837200813124618e-03}
alpha_moments_count = 7791
alpha_index_basic_count = 280
alpha_index_basic = {{0, 0, 0, 0}, {1, 0, 0, 0}, {2, 0, 0, 0}, {3, 0, 0, 0}, {4, 0, 0, 0}, {5, 0, 0, 0}, {6, 0, 0, 0}, {7, 0, 0, 0}, {0, 0, 0, 1}, {0, 0, 1, 0}, {0, 1, 0, 0}, {0, 0, 0, 2}, {0, 0, 1, 1}, {0, 0, 2, 0}, {0, 1, 0, 1}, {0, 1, 1, 0}, {0, 2, 0, 0}, {0, 0, 0, 3}, {0, 0, 1, 2}, {0, 0, 2, 1}, {0, 0, 3, 0}, {0, 1, 0, 2}, {0, 1, 1, 1}, {0, 1, 2, 0}, {0, 2, 0, 1}, {0, 2, 1, 0}, {0, 3, 0, 0}, {0, 0, 0, 4}, {0, 0, 1, 3}, {0, 0, 2, 2}, {0, 0, 3, 1}, {0, 0, 4, 0}, {0, 1, 0, 3}, {0, 1, 1, 2}, {0, 1, 2, 1}, {0, 1, 3, 0}, {0, 2, 0, 2}, {0, 2, 1, 1}, {0, 2, 2, 0}, {0, 3, 0, 1}, {0, 3, 1, 0}, {0, 4, 0, 0}, {1, 0, 0, 1}, {1, 0, 1, 0}, {1, 1, 0, 0}, {1, 0, 0, 2}, {1, 0, 1, 1}, {1, 0, 2, 0}, {1, 1, 0, 1}, {1, 1, 1, 0}, {1, 2, 0, 0}, {1, 0, 0, 3}, {1, 0, 1, 2}, {1, 0, 2, 1}, {1, 0, 3, 0}, {1, 1, 0, 2}, {1, 1, 1, 1}, {1, 1, 2, 0}, {1, 2, 0, 1}, {1, 2, 1, 0}, {1, 3, 0, 0}, {1, 0, 0, 4}, {1, 0, 1, 3}, {1, 0, 2, 2}, {1, 0, 3, 1}, {1, 0, 4, 0}, {1, 1, 0, 3}, {1, 1, 1, 2}, {1, 1, 2, 1}, {1, 1, 3, 0}, {1, 2, 0, 2}, {1, 2, 1, 1}, {1, 2, 2, 0}, {1, 3, 0, 1}, {1, 3, 1, 0}, {1, 4, 0, 0}, {2, 0, 0, 1}, {2, 0, 1, 0}, {2, 1, 0, 0}, {2, 0, 0, 2}, {2, 0, 1, 1}, {2, 0, 2, 0}, {2, 1, 0, 1}, {2, 1, 1, 0}, {2, 2, 0, 0}, {2, 0, 0, 3}, {2, 0, 1, 2}, {2, 0, 2, 1}, {2, 0, 3, 0}, {2, 1, 0, 2}, {2, 1, 1, 1}, {2, 1, 2, 0}, {2, 2, 0, 1}, {2, 2, 1, 0}, {2, 3, 0, 0}, {2, 0, 0, 4}, {2, 0, 1, 3}, {2, 0, 2, 2}, {2, 0, 3, 1}, {2, 0, 4, 0}, {2, 1, 0, 3}, {2, 1, 1, 2}, {2, 1, 2, 1}, {2, 1, 3, 0}, {2, 2, 0, 2}, {2, 2, 1, 1}, {2, 2, 2, 0}, {2, 3, 0, 1}, {2, 3, 1, 0}, {2, 4, 0, 0}, {3, 0, 0, 1}, {3, 0, 1, 0}, {3, 1, 0, 0}, {3, 0, 0, 2}, {3, 0, 1, 1}, {3, 0, 2, 0}, {3, 1, 0, 1}, {3, 1, 1, 0}, {3, 2, 0, 0}, {3, 0, 0, 3}, {3, 0, 1, 2}, {3, 0, 2, 1}, {3, 0, 3, 0}, {3, 1, 0, 2}, {3, 1, 1, 1}, {3, 1, 2, 0}, {3, 2, 0, 1}, {3, 2, 1, 0}, {3, 3, 0, 0}, {3, 0, 0, 4}, {3, 0, 1, 3}, {3, 0, 2, 2}, {3, 0, 3, 1}, {3, 0, 4, 0}, {3, 1, 0, 3}, {3, 1, 1, 2}, {3, 1, 2, 1}, {3, 1, 3, 0}, {3, 2, 0, 2}, {3, 2, 1, 1}, {3, 2, 2, 0}, {3, 3, 0, 1}, {3, 3, 1, 0}, {3, 4, 0, 0}, {4, 0, 0, 1}, {4, 0, 1, 0}, {4, 1, 0, 0}, {4, 0, 0, 2}, {4, 0, 1, 1}, {4, 0, 2, 0}, {4, 1, 0, 1}, {4, 1, 1, 0}, {4, 2, 0, 0}, {4, 0, 0, 3}, {4, 0, 1, 2}, {4, 0, 2, 1}, {4, 0, 3, 0}, {4, 1, 0, 2}, {4, 1, 1, 1}, {4, 1, 2, 0}, {4, 2, 0, 1}, {4, 2, 1, 0}, {4, 3, 0, 0}, {4, 0, 0, 4}, {4, 0, 1, 3}, {4, 0, 2, 2}, {4, 0, 3, 1}, {4, 0, 4, 0}, {4, 1, 0, 3}, {4, 1, 1, 2}, {4, 1, 2, 1}, {4, 1, 3, 0}, {4, 2, 0, 2}, {4, 2, 1, 1}, {4, 2, 2, 0}, {4, 3, 0, 1}, {4, 3, 1, 0}, {4, 4, 0, 0}, {5, 0, 0, 1}, {5, 0, 1, 0}, {5, 1, 0, 0}, {5, 0, 0, 2}, {5, 0, 1, 1}, {5, 0, 2, 0}, {5, 1, 0, 1}, {5, 1, 1, 0}, {5, 2, 0, 0}, {5, 0, 0, 3}, {5, 0, 1, 2}, {5, 0, 2, 1}, {5, 0, 3, 0}, {5, 1, 0, 2}, {5, 1, 1, 1}, {5, 1, 2, 0}, {5, 2, 0, 1}, {5, 2, 1, 0}, {5, 3, 0, 0}, {5, 0, 0, 4}, {5, 0, 1, 3}, {5, 0, 2, 2}, {5, 0, 3, 1}, {5, 0, 4, 0}, {5, 1, 0, 3}, {5, 1, 1, 2}, {5, 1, 2, 1}, {5, 1, 3, 0}, {5, 2, 0, 2}, {5, 2, 1, 1}, {5, 2, 2, 0}, {5, 3, 0, 1}, {5, 3, 1, 0}, {5, 4, 0, 0}, {6, 0, 0, 1}, {6, 0, 1, 0}, {6, 1, 0, 0}, {6, 0, 0, 2}, {6, 0, 1, 1}, {6, 0, 2, 0}, {6, 1, 0, 1}, {6, 1, 1, 0}, {6, 2, 0, 0}, {6, 0, 0, 3}, {6, 0, 1, 2}, {6, 0, 2, 1}, {6, 0, 3, 0}, {6, 1, 0, 2}, {6, 1, 1, 1}, {6, 1, 2, 0}, {6, 2, 0, 1}, {6, 2, 1, 0}, {6, 3, 0, 0}, {6, 0, 0, 4}, {6, 0, 1, 3}, {6, 0, 2, 2}, {6, 0, 3, 1}, {6, 0, 4, 0}, {6, 1, 0, 3}, {6, 1, 1, 2}, {6, 1, 2, 1}, {6, 1, 3, 0}, {6, 2, 0, 2}, {6, 2, 1, 1}, {6, 2, 2, 0}, {6, 3, 0, 1}, {6, 3, 1, 0}, {6, 4, 0, 0}, {7, 0, 0, 1}, {7, 0, 1, 0}, {7, 1, 0, 0}, {7, 0, 0, 2}, {7, 0, 1, 1}, {7, 0, 2, 0}, {7, 1, 0, 1}, {7, 1, 1, 0}, {7, 2, 0, 0}, {7, 0, 0, 3}, {7, 0, 1, 2}, {7, 0, 2, 1}, {7, 0, 3, 0}, {7, 1, 0, 2}, {7, 1, 1, 1}, {7, 1, 2, 0}, {7, 2, 0, 1}, {7, 2, 1, 0}, {7, 3, 0, 0}, {7, 0, 0, 4}, {7, 0, 1, 3}, {7, 0, 2, 2}, {7, 0, 3, 1}, {7, 0, 4, 0}, {7, 1, 0, 3}, {7, 1, 1, 2}, {7, 1, 2, 1}, {7, 1, 3, 0}, {7, 2, 0, 2}, {7, 2, 1, 1}, {7, 2, 2, 0}, {7, 3, 0, 1}, {7, 3, 1, 0}, {7, 4, 0, 0}}
alpha_index_times_count = 33993
alpha_index_times = {{0, 0, 1, 280}, {8, 8, 1, 281}, {9, 9, 1, 281}, {10, 10, 1, 281}, {11, 11, 1, 282}, {12, 12, 2, 282}, {13, 13, 1, 282}, {14, 14, 2, 282}, {15, 15, 2, 282}, {16, 16, 1, 282}, {17, 17, 1, 283}, {18, 18, 3, 283}, {19, 19, 3, 283}, {20, 20, 1, 283}, {21, 21, 3, 283}, {22, 22, 6, 283}, {23, 23, 3, 283}, {24, 24, 3, 283}, {25, 25, 3, 283}, {26, 26, 1, 283}, {27, 27, 1, 284}, {28, 28, 4, 284}, {29, 29, 6, 284}, {30, 30, 4, 284}, {31, 31, 1, 284}, {32, 32, 4, 284}, {33, 33, 12, 284}, {34, 34, 12, 284}, {35, 35, 4, 284}, {36, 36, 6, 284}, {37, 37, 12, 284}, {38, 38, 6, 284}, {39, 39, 4, 284}, {40, 40, 4, 284}, {41, 41, 1, 284}, {0, 1, 1, 285}, {8, 42, 1, 286}, {9, 43, 1, 286}, {10, 44, 1, 286}, {11, 45, 1, 287}, {12, 46, 2, 287}, {13, 47, 1, 287}, {14, 48, 2, 287}, {15, 49, 2, 287}, {16, 50, 1, 287}, {17, 51, 1, 288}, {18, 52, 3, 288}, {19, 53, 3, 288}, {20, 54, 1, 288}, {21, 55, 3, 288}, {22, 56, 6, 288}, {23, 57, 3, 288}, {24, 58, 3, 288}, {25, 59, 3, 288}, {26, 60, 1, 288}, {27, 61, 1, 289}, {28, 62, 4, 289}, {29, 63, 6, 289}, {30, 64, 4, 289}, {31, 65, 1, 289}, {32, 66, 4, 289}, {33, 67, 12, 289}, {34, 68, 12, 289}, {35, 69, 4, 289}, {36, 70, 6, 289}, {37, 71, 12, 289}, {38, 72, 6, 289}, {39, 73, 4, 289}, {40, 74, 4, 289}, {41, 75, 1, 289}, {0, 2, 1, 290}, {1, 1, 1, 291}, {8, 76, 1, 292}, {9, 77, 1, 292}, {10, 78, 1, 292}, {42, 42, 1, 293}, {43, 43, 1, 293}, {44, 44, 1, 293}, {11, 79, 1, 294}, {12, 80, 2, 294}, {13, 81, 1, 294}, {14, 82, 2, 294}, {15, 83, 2, 294}, {16, 84, 1, 294}, {45, 45, 1, 295}, {46, 46, 2, 295}, {47, 47, 1, 295}, {48, 48, 2, 295}, {49, 49, 2, 295}, {50, 50, 1, 295}, {17, 85, 1, 296}, {18, 86, 3, 296}, {19, 87, 3, 296}, {20, 88, 1, 296}, {21, 89, 3, 296}, {22, 90, 6, 296}, {23, 91, 3, 296}, {24, 92, 3, 296}, {25, 93, 3, 296}, {26, 94, 1, 296}, {51, 51, 1, 297}, {52, 52, 3, 297}, {53, 53, 3, 297}, {54, 54, 1, 297}, {55, 55, 3, 297}, {56, 56, 6, 297}, {57, 57, 3, 297}, {58, 58, 3, 297}, {59, 59, 3, 297}, {60, 60, 1, 297}, {27, 95, 1, 298}, {28, 96, 4, 298}, {29, 97, 6, 298}, {30, 98, 4, 298}, {31, 99, 1, 298}, {32, 100, 4, 298}, {33, 101, 12, 298}, {34, 102, 12, 298}, {35, 103, 4, 298}, {36, 104, 6, 298}, {37, 105, 12, 298}, {38, 106, 6, 298}, {39, 107, 4, 298}, {40, 108, 4, 298}, {41, 109, 1, 298}, {61, 61, 1, 299}, {62, 62, 4, 299}, {63, 63, 6, 299}, {64, 64, 4, 299}, {65, 65, 1, 299}, {66, 66, 4, 299}, {67, 67, 12, 299}, {68, 68, 12, 299}, {69, 69, 4, 299}, {70, 70, 6, 299}, {71, 71, 12, 299}, {72, 72, 6, 299}, {73, 73, 4, 299}, {74, 74, 4, 299}, {75, 75, 1, 299}, {0, 3, 1, 300}, {1, 2, 1, 301}, {8, 110, 1, 302}, {9, 111, 1, 302}, {10, 112, 1, 302}, {42, 76, 1, 303}, {43, 77, 1, 303}, {44, 78, 1, 303}, {11, 113, 1, 304}, {12, 114, 2, 304}, {13, 115, 1, 304}, {14, 116, 2, 304}, {15, 117, 2, 304}, {16, 118, 1, 304}, {45, 79, 1, 305}, {46, 80, 2, 305}, {47, 81, 1, 305}, {48, 82, 2, 305}, {49, 83, 2, 305}, {50, 84, 1, 305}, {17, 119, 1, 306}, {18, 120, 3, 306}, {19, 121, 3, 306}, {20, 122, 1, 306}, {21, 123, 3, 306}, {22, 124, 6, 306}, {23, 125, 3, 306}, {24, 126, 3, 306}, {25, 127, 3, 306}, {26, 128, 1, 306}, {51, 85, 1, 307}, {52, 86, 3, 307}, {53, 87, 3, 307}, {54, 88, 1, 307}, {55, 89, 3, 307}, {56, 90, 6, 307}, {57, 91, 3, 307}, {58, 92, 3, 307}, {59, 93, 3, 307}, {60, 94, 1, 307}, {27, 129, 1, 308}, {28, 130, 4, 308}, {29, 131, 6, 308}, {30, 132, 4, 308}, {31, 133, 1, 308}, {32, 134, 4, 308}, {33, 135, 12, 308}, {34, 136, 12, 308}, {35, 137, 4, 308}, {36, 138, 6, 308}, {37, 139, 12, 308}, {38, 140, 6, 308}, {39, 141, 4, 308}, {40, 142, 4, 308}, {41, 143, 1, 308}, {61, 95, 1, 309}, {62, 96, 4, 309}, {63, 97, 6, 309}, {64, 98, 4, 309}, {65, 99, 1, 309}, {66, 100, 4, 309}, {67, 101, 12, 309}, {68, 102, 12, 309}, {69, 103, 4, 309}, {70, 104, 6, 309}, {71, 105, 12, 309}, {72, 106, 6, 309}, {73, 107, 4, 309}, {74, 108, 4, 309}, {75, 109, 1, 309}, {0, 4, 1, 310}, {1, 3, 1, 311}, {2, 2, 1, 312}, {8, 144, 1, 313}, {9, 145, 1, 313}, {10, 146, 1, 313}, {42, 110, 1, 314}, {43, 111, 1, 314}, {44, 112, 1, 314}, {76, 76, 1, 315}, {77, 77, 1, 315}, {78, 78, 1, 315}, {11, 147, 1, 316}, {12, 148, 2, 316}, {13, 149, 1, 316}, {14, 150, 2, 316}, {15, 151, 2, 316}, {16, 152, 1, 316}, {45, 113, 1, 317}, {46, 114, 2, 317}, {47, 115, 1, 317}, {48, 116, 2, 317}, {49, 117, 2, 317}, {50, 118, 1, 317}, {79, 79, 1, 318}, {80, 80, 2, 318}, {81, 81, 1, 318}, {82, 82, 2, 318}, {83, 83, 2, 318}, {84, 84, 1, 318}, {17, 153, 1, 319}, {18, 154, 3, 319}, {19, 155, 3, 319}, {20, 156, 1, 319}, {21, 157, 3, 319}, {22, 158, 6, 319}, {23, 159, 3, 319}, {24, 160, 3, 319}, {25, 161, 3, 319}, {26, 162, 1, 319}, {51, 119, 1, 320}, {52, 120, 3, 320}, {53, 121, 3, 320}, {54, 122, 1, 320}, {55, 123, 3, 320}, {56, 124, 6, 320}, {57, 125, 3, 320}, {58, 126, 3, 320}, {59, 127, 3, 320}, {60, 128, 1, 320}, {85, 85, 1, 321}, {86, 86, 3, 321}, {87, 87, 3, 321}, {88, 88, 1, 321}, {89, 89, 3, 321}, {90, 90, 6, 321}, {91, 91, 3, 321}, {92, 92, 3, 321}, {93, 93, 3, 321}, {94, 94, 1, 321}, {27, 163, 1, 322}, {28, 164, 4, 322}, {29, 165, 6, 322}, {30, 166, 4, 322}, {31, 167, 1, 322}, {32, 168, 4, 322}, {33, 169, 12, 322}, {34, 170, 12, 322}, {35, 171, 4, 322}, {36, 172, 6, 322}, {37, 173, 12, 322}, {38, 174, 6, 322}, {39, 175, 4, 322}, {40, 176, 4, 322}, {41, 177, 1, 322}, {61, 129, 1, 323}, {62, 130, 4, 323}, {63, 131, 6, 323}, {64, 132, 4, 323}, {65, 133, 1, 323}, {66, 134, 4, 323}, {67, 135, 12, 323}, {68, 136, 12, 323}, {69, 137, 4, 323}, {70, 138, 6, 323}, {71, 139, 12, 323}, {72, 140, 6, 323}, {73, 141, 4, 323}, {74, 142, 4, 323}, {75, 143, 1, 323}, {95, 95, 1, 324}, {96, 96, 4, 324}, {97, 97, 6, 324}, {98, 98, 4, 324}, {99, 99, 1, 324}, {100, 100, 4, 324}, {101, 101, 12, 324}, {102, 102, 12, 324}, {103, 103, 4, 324}, {104, 104, 6, 324}, {105, 105, 12, 324}, {106, 106, 6, 324}, {107, 107, 4, 324}, {108, 108, 4, 324}, {109, 109, 1, 324}, {0, 5, 1, 325}, {1, 4, 1, 326}, {2, 3, 1, 327}, {8, 178, 1, 328}, {9, 179, 1, 328}, {10, 180, 1, 328}, {42, 144, 1, 329}, {43, 145, 1, 329}, {44, 146, 1, 329}, {76, 110, 1, 330}, {77, 111, 1, 330}, {78, 112, 1, 330}, {11, 181, 1, 331}, {12, 182, 2, 331}, {13, 183, 1, 331}, {14, 184, 2, 331}, {15, 185, 2, 331}, {16, 186, 1, 331}, {45, 147, 1, 332}, {46, 148, 2, 332}, {47, 149, 1, 332}, {48, 150, 2, 332}, {49, 151, 2, 332}, {50, 152, 1, 332}, {79, 113, 1, 333}, {80, 114, 2, 333}, {81, 115, 1, 333}, {82, 116, 2, 333}, {83, 117, 2, 333}, {84, 118, 1, 333}, {17, 187, 1, 334}, {18, 188, 3, 334}, {19, 189, 3, 334}, {20, 190, 1, 334}, {21, 191, 3, 334}, {22, 192, 6, 334}, {23, 193, 3, 334}, {24, 194, 3, 334}, {25, 195, 3, 334}, {26, 196, 1, 334}, {51, 153, 1, 335}, {52, 154, 3, 335}, {53, 155, 3, 335}, {54, 156, 1, 335}, {55, 157, 3, 335}, {56, 158, 6, 335}, {57, 159, 3, 335}, {58, 160, 3, 335}, {59, 161, 3, 335}, {60, 162, 1, 335}, {85, 119, 1, 336}, {86, 120, 3, 336}, {87, 121, 3, 336}, {88, 122, 1, 336}, {89, 123, 3, 336}, {90, 124, 6, 336}, {91, 125, 3, 336}, {92, 126, 3, 336}, {93, 127, 3, 336}, {94, 128, 1, 336}, {27, 197, 1, 337}, {28, 198, 4, 337}, {29, 199, 6, 337}, {30, 200, 4, 337}, {31, 201, 1, 337}, {32, 202, 4, 337}, {33, 203, 12, 337}, {34, 204, 12, 337}, {35, 205, 4, 337}, {36, 206, 6, 337}, {37, 207, 12, 337}, {38, 208, 6, 337}, {39, 209, 4, 337}, {40, 210, 4, 337}, {41, 211, 1, 337}, {61, 163, 1, 338}, {62, 164, 4, 338}, {63, 165, 6, 338}, {64, 166, 4, 338}, {65, 167, 1, 338}, {66, 168, 4, 338}, {67, 169, 12, 338}, {68, 170, 12, 338}, {69, 171, 4, 338}, {70, 172, 6, 338}, {71, 173, 12, 338}, {72, 174, 6, 338}, {73, 175, 4, 338}, {74, 176, 4, 338}, {75, 177, 1, 338}, {95, 129, 1, 339}, {96, 130, 4, 339}, {97, 131, 6, 339}, {98, 132, 4, 339}, {99, 133, 1, 339}, {100, 134, 4, 339}, {101, 135, 12, 339}, {102, 136, 12, 339}, {103, 137, 4, 339}, {104, 138, 6, 339}, {105, 139, 12, 339}, {106, 140, 6, 339}, {107, 141, 4, 339}, {108, 142, 4, 339}, {109, 143, 1, 339}, {0, 6, 1, 340}, {1, 5, 1, 341}, {2, 4, 1, 342}, {3, 3, 1, 343}, {8, 212, 1, 344}, {9, 213, 1, 344}, {10, 214, 1, 344}, {42, 178, 1, 345}, {43, 179, 1, 345}, {44, 180, 1, 345}, {76, 144, 1, 346}, {77, 145, 1, 346}, {78, 146, 1, 346}, {110, 110, 1, 347}, {111, 111, 1, 347}, {112, 112, 1, 347}, {11, 215, 1, 348}, {12, 216, 2, 348}, {13, 217, 1, 348}, {14, 218, 2, 348}, {15, 219, 2, 348}, {16, 220, 1, 348}, {45, 181, 1, 349}, {46, 182, 2, 349}, {47, 183, 1, 349}, {48, 184, 2, 349}, {49, 185, 2, 349}, {50, 186, 1, 349}, {79, 147, 1, 350}, {80, 148, 2, 350}, {81, 149, 1, 350}, {82, 150, 2, 350}, {83, 151, 2, 350}, {84, 152, 1, 350}, {113, 113, 1, 351}, {114, 114, 2, 351}, {115, 115, 1, 351}, {116, 116, 2, 351}, {117, 117, 2, 351}, {118, 118, 1, 351}, {17, 221, 1, 352}, {18, 222, 3, 352}, {19, 223, 3, 352}, {20, 224, 1, 352}, {21, 225, 3, 352}, {22, 226, 6, 352}, {23, 227, 3, 352}, {24, 228, 3, 352}, {25, 229, 3, 352}, {26, 230, 1, 352}, {51, 187, 1, 353}, {52, 188, 3, 353}, {53, 189, 3, 353}, {54, 190, 1, 353}, {55, 191, 3, 353}, {56, 192, 6, 353}, {57, 193, 3, 353}, {58, 194, 3, 353}, {59, 195, 3, 353}, {60, 196, 1, 353}, {85, 153, 1, 354}, {86, 154, 3, 354}, {87, 155, 3, 354}, {88, 156, 1, 354}, {89, 157, 3, 354}, {90, 158, 6, 354}, {91, 159, 3, 354}, {92, 160, 3, 354}, {93, 161, 3, 354}, {94, 162, 1, 354}, {119, 119, 1, 355}, {120, 120, 3, 355}, {121, 121, 3, 355}, {122, 122, 1, 355}, {123, 123, 3, 355}, {124, 124, 6, 355}, {125, 125, 3, 355}, {126, 126, 3, 355}, {127, 127, 3, 355}, {128, 128, 1, 355}, {27, 231, 1, 356}, {28, 232, 4, 356}, {29, 233, 6, 356}, {30, 234, 4, 356}, {31, 235, 1, 356}, {32, 236, 4, 356}, {33, 237, 12, 356}, {34, 238, 12, 356}, {35, 239, 4, 356}, {36, 240, 6, 356}, {37, 241, 12, 356}, {38, 242, 6, 356}, {39, 243, 4, 356}, {40, 244, 4, 356}, {41, 245, 1, 356}, {61, 197, 1, 357}, {62, 198, 4, 357}, {63, 199, 6, 357}, {64, 200, 4, 357}, {65, 201, 1, 357}, {66, 202, 4, 357}, {67, 203, 12, 357}, {68, 204, 12, 357}, {69, 205, 4, 357}, {70, 206, 6, 357}, {71, 207, 12, 357}, {72, 208, 6, 357}, {73, 209, 4, 357}, {74, 210, 4, 357}, {75, 211, 1, 357}, {95, 163, 1, 358}, {96, 164, 4, 358}, {97, 165, 6, 358}, {98, 166, 4, 358}, {99, 167, 1, 358}, {100, 168, 4, 358}, {101, 169, 12, 358}, {102, 170, 12, 358}, {103, 171, 4, 358}, {104, 172, 6, 358}, {105, 173, 12, 358}, {106, 174, 6, 358}, {107, 175, 4, 358}, {108, 176, 4, 358}, {109, 177, 1, 358}, {129, 129, 1, 359}, {130, 130, 4, 359}, {131, 131, 6, 359}, {132, 132, 4, 359}, {133, 133, 1, 359}, {134, 134, 4, 359}, {135, 135, 12, 359}, {136, 136, 12, 359}, {137, 137, 4, 359}, {138, 138, 6, 359}, {139, 139, 12, 359}, {140, 140, 6, 359}, {141, 141, 4, 359}, {142, 142, 4, 359}, {143, 143, 1, 359}, {0, 7, 1, 360}, {1, 6, 1, 361}, {2, 5, 1, 362}, {3, 4, 1, 363}, {8, 246, 1, 364}, {9, 247, 1, 364}, {10, 248, 1, 364}, {42, 212, 1, 365}, {43, 213, 1, 365}, {44, 214, 1, 365}, {76, 178, 1, 366}, {77, 179, 1, 366}, {78, 180, 1, 366}, {110, 144, 1, 367}, {111, 145, 1, 367}, {112, 146, 1, 367}, {11, 249, 1, 368}, {12, 250, 2, 368}, {13, 251, 1, 368}, {14, 252, 2, 368}, {15, 253, 2, 368}, {16, 254, 1, 368}, {45, 215, 1, 369}, {46, 216, 2, 369}, {47, 217, 1, 369}, {48, 218, 2, 369}, {49, 219, 2, 369}, {50, 220, 1, 369}, {79, 181, 1, 370}, {80, 182, 2, 370}, {81, 183, 1, 370}, {82, 184, 2, 370}, {83, 185, 2, 370}, {84, 186, 1, 370}, {113, 147, 1, 371}, {114, 148, 2, 371}, {115, 149, 1, 371}, {116, 150, 2, 371}, {117, 151, 2, 371}, {118, 152, 1, 371}, {17, 255, 1, 372}, {18, 256, 3, 372}, {19, 257, 3, 372}, {20, 258, 1, 372}, {21, 259, 3, 372}, {22, 260, 6, 372}, {23, 261, 3, 372}, {24, 262, 3, 372}, {25, 263, 3, 372}, {26, 264, 1, 372}, {51, 221, 1, 373}, {52, 222, 3, 373}, {53, 223, 3, 373}, {54, 224, 1, 373}, {55, 225, 3, 373}, {56, 226, 6, 373}, {57, 227, 3, 373}, {58, 228, 3, 373}, {59, 229, 3, 373}, {60, 230, 1, 373}, {85, 187, 1, 374}, {86, 188, 3, 374}, {87, 189, 3, 374}, {88, 190, 1, 374}, {89, 191, 3, 374}, {90, 192, 6, 374}, {91, 193, 3, 374}, {92, 194, 3, 374}, {93, 195, 3, 374}, {94, 196, 1, 374}, {119, 153, 1, 375}, {120, 154, 3, 375}, {121, 155, 3, 375}, {122, 156, 1, 375}, {123, 157, 3, 375}, {124, 158, 6, 375}, {125, 159, 3, 375}, {126, 160, 3, 375}, {127, 161, 3, 375}, {128, 162, 1, 375}, {27, 265, 1, 376}, {28, 266, 4, 376}, {29, 267, 6, 376}, {30, 268, 4, 376}, {31, 269, 1, 376}, {32, 270, 4, 376}, {33, 271, 12, 376}, {34, 272, 12, 376}, {35, 273, 4, 376}, {36, 274, 6, 376}, {37, 275, 12, 376}, {38, 276, 6, 376}, {39, 277, 4, 376}, {40, 278, 4, 376}, {41, 279, 1, 376}, {61, 231, 1, 377}, {62, 232, 4, 377}, {63, 233, 6, 377}, {64, 234, 4, 377}, {65, 235, 1, 377}, {66, 236, 4, 377}, {67, 237, 12, 377}, {68, 238, 12, 377}, {69, 239, 4, 377}, {70, 240, 6, 377}, {71, 241, 12, 377}, {72, 242, 6, 377}, {73, 243, 4, 377}, {74, 244, 4, 377}, {75, 245, 1, 377}, {95, 197, 1, 378}, {96, 198, 4, 378}, {97, 199, 6, 378}, {98, 200, 4, 378}, {99, 201, 1, 378}, {100, 202, 4, 378}, {101, 203, 12, 378}, {102, 204, 12, 378}, {103, 205, 4, 378}, {104, 206, 6, 378}, {105, 207, 12, 378}, {106, 208, 6, 378}, {107, 209, 4, 378}, {108, 210, 4, 378}, {109, 211, 1, 378}, {129, 163, 1, 379}, {130, 164, 4, 379}, {131, 165, 6, 379}, {132, 166, 4, 379}, {133, 167, 1, 379}, {134, 168, 4, 379}, {135, 169, 12, 379}, {136, 170, 12, 379}, {137, 171, 4, 379}, {138, 172, 6, 379}, {139, 173, 12, 379}, {140, 174, 6, 379}, {141, 175, 4, 379}, {142, 176, 4, 379}, {143, 177, 1, 379}, {1, 7, 1, 380}, {2, 6, 1, 381}, {3, 5, 1, 382}, {4, 4, 1, 383}, {42, 246, 1, 384}, {43, 247, 1, 384}, {44, 248, 1, 384}, {76, 212, 1, 385}, {77, 213, 1, 385}, {78, 214, 1, 385}, {110, 178, 1, 386}, {111, 179, 1, 386}, {112, 180, 1, 386}, {144, 144, 1, 387}, {145, 145, 1, 387}, {146, 146, 1, 387}, {45, 249, 1, 388}, {46, 250, 2, 388}, {47, 251, 1, 388}, {48, 252, 2, 388}, {49, 253, 2, 388}, {50, 254, 1, 388}, {79, 215, 1, 389}, {80, 216, 2, 389}, {81, 217, 1, 389}, {82, 218, 2, 389}, {83, 219, 2, 389}, {84, 220, 1, 389}, {113, 181, 1, 390}, {114, 182, 2, 390}, {115, 183, 1, 390}, {116, 184, 2, 390}, {117, 185, 2, 390}, {118, 186, 1, 390}, {147, 147, 1, 391}, {148, 148, 2, 391}, {149, 149, 1, 391}, {150, 150, 2, 391}, {151, 151, 2, 391}, {152, 152, 1, 391}, {51, 255, 1, 392}, {52, 256, 3, 392}, {53, 257, 3, 392}, {54, 258, 1, 392}, {55, 259, 3, 392}, {56, 260, 6, 392}, {57, 261, 3, 392}, {58, 262, 3, 392}, {59, 263, 3, 392}, {60, 264, 1, 392}, {85, 221, 1, 393}, {86, 222, 3, 393}, {87, 223, 3, 393}, {88, 224, 1, 393}, {89, 225, 3, 393}, {90, 226, 6, 393}, {91, 227, 3, 393}, {92, 228, 3, 393}, {93, 229, 3, 393}, {94, 230, 1, 393}, {119, 187, 1, 394}, {120, 188, 3, 394}, {121, 189, 3, 394}, {122, 190, 1, 394}, {123, 191, 3, 394}, {124, 192, 6, 394}, {125, 193, 3, 394}, {126, 194, 3, 394}, {127, 195, 3, 394}, {128, 196, 1, 394}, {153, 153, 1, 395}, {154, 154, 3, 395}, {155, 155, 3, 395}, {156, 156, 1, 395}, {157, 157, 3, 395}, {158, 158, 6, 395}, {159, 159, 3, 395}, {160, 160, 3, 395}, {161, 161, 3, 395}, {162, 162, 1, 395}, {2, 7, 1, 396}, {3, 6, 1, 397}, {4, 5, 1, 398}, {76, 246, 1, 399}, {77, 247, 1, 399}, {78, 248, 1, 399}, {110, 212, 1, 400}, {111, 213, 1, 400}, {112, 214, 1, 400}, {144, 178, 1, 401}, {145, 179, 1, 401}, {146, 180, 1, 401}, {79, 249, 1, 402}, {80, 250, 2, 402}, {81, 251, 1, 402}, {82, 252, 2, 402}, {83, 253, 2, 402}, {84, 254, 1, 402}, {113, 215, 1, 403}, {114, 216, 2, 403}, {115, 217, 1, 403}, {116, 218, 2, 403}, {117, 219, 2, 403}, {118, 220, 1, 403}, {147, 181, 1, 404}, {148, 182, 2, 404}, {149, 183, 1, 404}, {150, 184, 2, 404}, {151, 185, 2, 404}, {152, 186, 1, 404}, {3, 7, 1, 405}, {4, 6, 1, 406}, {5, 5, 1, 407}, {110, 246, 1, 408}, {111, 247, 1, 408}, {112, 248, 1, 408}, {144, 212, 1, 409}, {145, 213, 1, 409}, {146, 214, 1, 409}, {178, 178, 1, 410}, {179, 179, 1, 410}, {180, 180, 1, 410}, {4, 7, 1, 411}, {5, 6, 1, 412}, {0, 280, 1, 413}, {0, 8, 1, 414}, {0, 9, 1, 415}, {0, 10, 1, 416}, {0, 282, 1, 417}, {8, 11, 1, 418}, {9, 12, 1, 418}, {10, 14, 1, 418}, {8, 12, 1, 419}, {9, 13, 1, 419}, {10, 15, 1, 419}, {8, 14, 1, 420}, {9, 15, 1, 420}, {10, 16, 1, 420}, {0, 283, 1, 421}, {11, 17, 1, 422}, {12, 18, 2, 422}, {13, 19, 1, 422}, {14, 21, 2, 422}, {15, 22, 2, 422}, {16, 24, 1, 422}, {11, 18, 1, 423}, {12, 19, 2, 423}, {13, 20, 1, 423}, {14, 22, 2, 423}, {15, 23, 2, 423}, {16, 25, 1, 423}, {11, 21, 1, 424}, {12, 22, 2, 424}, {13, 23, 1, 424}, {14, 24, 2, 424}, {15, 25, 2, 424}, {16, 26, 1, 424}, {8, 17, 1, 425}, {9, 18, 1, 425}, {10, 21, 1, 425}, {8, 18, 1, 426}, {9, 19, 1, 426}, {10, 22, 1, 426}, {8, 19, 1, 427}, {9, 20, 1, 427}, {10, 23, 1, 427}, {8, 21, 1, 428}, {9, 22, 1, 428}, {10, 24, 1, 428}, {8, 22, 1, 429}, {9, 23, 1, 429}, {10, 25, 1, 429}, {8, 24, 1, 430}, {9, 25, 1, 430}, {10, 26, 1, 430}, {11, 11, 1, 431}, {12, 12, 1, 431}, {14, 14, 1, 431}, {11, 12, 1, 432}, {12, 13, 1, 432}, {14, 15, 1, 432}, {11, 14, 1, 433}, {12, 15, 1, 433}, {14, 16, 1, 433}, {12, 11, 1, 434}, {13, 12, 1, 434}, {15, 14, 1, 434}, {12, 12, 1, 435}, {13, 13, 1, 435}, {15, 15, 1, 435}, {12, 14, 1, 436}, {13, 15, 1, 436}, {15, 16, 1, 436}, {14, 11, 1, 437}, {15, 12, 1, 437}, {16, 14, 1, 437}, {14, 12, 1, 438}, {15, 13, 1, 438}, {16, 15, 1, 438}, {14, 14, 1, 439}, {15, 15, 1, 439}, {16, 16, 1, 439}, {0, 284, 1, 440}, {17, 27, 1, 441}, {18, 28, 3, 441}, {19, 29, 3, 441}, {20, 30, 1, 441}, {21, 32, 3, 441}, {22, 33, 6, 441}, {23, 34, 3, 441}, {24, 36, 3, 441}, {25, 37, 3, 441}, {26, 39, 1, 441}, {17, 28, 1, 442}, {18, 29, 3, 442}, {19, 30, 3, 442}, {20, 31, 1, 442}, {21, 33, 3, 442}, {22, 34, 6, 442}, {23, 35, 3, 442}, {24, 37, 3, 442}, {25, 38, 3, 442}, {26, 40, 1, 442}, {17, 32, 1, 443}, {18, 33, 3, 443}, {19, 34, 3, 443}, {20, 35, 1, 443}, {21, 36, 3, 443}, {22, 37, 6, 443}, {23, 38, 3, 443}, {24, 39, 3, 443}, {25, 40, 3, 443}, {26, 41, 1, 443}, {8, 27, 1, 444}, {9, 28, 1, 444}, {10, 32, 1, 444}, {8, 28, 1, 445}, {9, 29, 1, 445}, {10, 33, 1, 445}, {8, 29, 1, 446}, {9, 30, 1, 446}, {10, 34, 1, 446}, {8, 30, 1, 447}, {9, 31, 1, 447}, {10, 35, 1, 447}, {8, 32, 1, 448}, {9, 33, 1, 448}, {10, 36, 1, 448}, {8, 33, 1, 449}, {9, 34, 1, 449}, {10, 37, 1, 449}, {8, 34, 1, 450}, {9, 35, 1, 450}, {10, 38, 1, 450}, {8, 36, 1, 451}, {9, 37, 1, 451}, {10, 39, 1, 451}, {8, 37, 1, 452}, {9, 38, 1, 452}, {10, 40, 1, 452}, {8, 39, 1, 453}, {9, 40, 1, 453}, {10, 41, 1, 453}, {11, 27, 1, 454}, {12, 28, 2, 454}, {13, 29, 1, 454}, {14, 32, 2, 454}, {15, 33, 2, 454}, {16, 36, 1, 454}, {11, 28, 1, 455}, {12, 29, 2, 455}, {13, 30, 1, 455}, {14, 33, 2, 455}, {15, 34, 2, 455}, {16, 37, 1, 455}, {11, 29, 1, 456}, {12, 30, 2, 456}, {13, 31, 1, 456}, {14, 34, 2, 456}, {15, 35, 2, 456}, {16, 38, 1, 456}, {11, 32, 1, 457}, {12, 33, 2, 457}, {13, 34, 1, 457}, {14, 36, 2, 457}, {15, 37, 2, 457}, {16, 39, 1, 457}, {11, 33, 1, 458}, {12, 34, 2, 458}, {13, 35, 1, 458}, {14, 37, 2, 458}, {15, 38, 2, 458}, {16, 40, 1, 458}, {11, 36, 1, 459}, {12, 37, 2, 459}, {13, 38, 1, 459}, {14, 39, 2, 459}, {15, 40, 2, 459}, {16, 41, 1, 459}, {17, 17, 1, 460}, {18, 18, 2, 460}, {19, 19, 1, 460}, {21, 21, 2, 460}, {22, 22, 2, 460}, {24, 24, 1, 460}, {17, 18, 1, 461}, {18, 19, 2, 461}, {19, 20, 1, 461}, {21, 22, 2, 461}, {22, 23, 2, 461}, {24, 25, 1, 461}, {17, 21, 1, 462}, {18, 22, 2, 462}, {19, 23, 1, 462}, {21, 24, 2, 462}, {22, 25, 2, 462}, {24, 26, 1, 462}, {18, 17, 1, 463}, {19, 18, 2, 463}, {20, 19, 1, 463}, {22, 21, 2, 463}, {23, 22, 2, 463}, {25, 24, 1, 463}, {18, 18, 1, 464}, {19, 19, 2, 464}, {20, 20, 1, 464}, {22, 22, 2, 464}, {23, 23, 2, 464}, {25, 25, 1, 464}, {18, 21, 1, 465}, {19, 22, 2, 465}, {20, 23, 1, 465}, {22, 24, 2, 465}, {23, 25, 2, 465}, {25, 26, 1, 465}, {21, 17, 1, 466}, {22, 18, 2, 466}, {23, 19, 1, 466}, {24, 21, 2, 466}, {25, 22, 2, 466}, {26, 24, 1, 466}, {21, 18, 1, 467}, {22, 19, 2, 467}, {23, 20, 1, 467}, {24, 22, 2, 467}, {25, 23, 2, 467}, {26, 25, 1, 467}, {21, 21, 1, 468}, {22, 22, 2, 468}, {23, 23, 1, 468}, {24, 24, 2, 468}, {25, 25, 2, 468}, {26, 26, 1, 468}, {11, 17, 1, 469}, {12, 18, 1, 469}, {14, 21, 1, 469}, {11, 18, 1, 470}, {12, 19, 1, 470}, {14, 22, 1, 470}, {11, 19, 1, 471}, {12, 20, 1, 471}, {14, 23, 1, 471}, {11, 21, 1, 472}, {12, 22, 1, 472}, {14, 24, 1, 472}, {11, 22, 1, 473}, {12, 23, 1, 473}, {14, 25, 1, 473}, {11, 24, 1, 474}, {12, 25, 1, 474}, {14, 26, 1, 474}, {12, 17, 1, 475}, {13, 18, 1, 475}, {15, 21, 1, 475}, {12, 18, 1, 476}, {13, 19, 1, 476}, {15, 22, 1, 476}, {12, 19, 1, 477}, {13, 20, 1, 477}, {15, 23, 1, 477}, {12, 21, 1, 478}, {13, 22, 1, 478}, {15, 24, 1, 478}, {12, 22, 1, 479}, {13, 23, 1, 479}, {15, 25, 1, 479}, {12, 24, 1, 480}, {13, 25, 1, 480}, {15, 26, 1, 480}, {14, 17, 1, 481}, {15, 18, 1, 481}, {16, 21, 1, 481}, {14, 18, 1, 482}, {15, 19, 1, 482}, {16, 22, 1, 482}, {14, 19, 1, 483}, {15, 20, 1, 483}, {16, 23, 1, 483}, {14, 21, 1, 484}, {15, 22, 1, 484}, {16, 24, 1, 484}, {14, 22, 1, 485}, {15, 23, 1, 485}, {16, 25, 1, 485}, {14, 24, 1, 486}, {15, 25, 1, 486}, {16, 26, 1, 486}, {27, 27, 1, 487}, {28, 28, 3, 487}, {29, 29, 3, 487}, {30, 30, 1, 487}, {32, 32, 3, 487}, {33, 33, 6, 487}, {34, 34, 3, 487}, {36, 36, 3, 487}, {37, 37, 3, 487}, {39, 39, 1, 487}, {27, 28, 1, 488}, {28, 29, 3, 488}, {29, 30, 3, 488}, {30, 31, 1, 488}, {32, 33, 3, 488}, {33, 34, 6, 488}, {34, 35, 3, 488}, {36, 37, 3, 488}, {37, 38, 3, 488}, {39, 40, 1, 488}, {27, 32, 1, 489}, {28, 33, 3, 489}, {29, 34, 3, 489}, {30, 35, 1, 489}, {32, 36, 3, 489}, {33, 37, 6, 489}, {34, 38, 3, 489}, {36, 39, 3, 489}, {37, 40, 3, 489}, {39, 41, 1, 489}, {28, 27, 1, 490}, {29, 28, 3, 490}, {30, 29, 3, 490}, {31, 30, 1, 490}, {33, 32, 3, 490}, {34, 33, 6, 490}, {35, 34, 3, 490}, {37, 36, 3, 490}, {38, 37, 3, 490}, {40, 39, 1, 490}, {28, 28, 1, 491}, {29, 29, 3, 491}, {30, 30, 3, 491}, {31, 31, 1, 491}, {33, 33, 3, 491}, {34, 34, 6, 491}, {35, 35, 3, 491}, {37, 37, 3, 491}, {38, 38, 3, 491}, {40, 40, 1, 491}, {28, 32, 1, 492}, {29, 33, 3, 492}, {30, 34, 3, 492}, {31, 35, 1, 492}, {33, 36, 3, 492}, {34, 37, 6, 492}, {35, 38, 3, 492}, {37, 39, 3, 492}, {38, 40, 3, 492}, {40, 41, 1, 492}, {32, 27, 1, 493}, {33, 28, 3, 493}, {34, 29, 3, 493}, {35, 30, 1, 493}, {36, 32, 3, 493}, {37, 33, 6, 493}, {38, 34, 3, 493}, {39, 36, 3, 493}, {40, 37, 3, 493}, {41, 39, 1, 493}, {32, 28, 1, 494}, {33, 29, 3, 494}, {34, 30, 3, 494}, {35, 31, 1, 494}, {36, 33, 3, 494}, {37, 34, 6, 494}, {38, 35, 3, 494}, {39, 37, 3, 494}, {40, 38, 3, 494}, {41, 40, 1, 494}, {32, 32, 1, 495}, {33, 33, 3, 495}, {34, 34, 3, 495}, {35, 35, 1, 495}, {36, 36, 3, 495}, {37, 37, 6, 495}, {38, 38, 3, 495}, {39, 39, 3, 495}, {40, 40, 3, 495}, {41, 41, 1, 495}, {11, 27, 1, 496}, {12, 28, 1, 496}, {14, 32, 1, 496}, {11, 28, 1, 497}, {12, 29, 1, 497}, {14, 33, 1, 497}, {11, 29, 1, 498}, {12, 30, 1, 498}, {14, 34, 1, 498}, {11, 30, 1, 499}, {12, 31, 1, 499}, {14, 35, 1, 499}, {11, 32, 1, 500}, {12, 33, 1, 500}, {14, 36, 1, 500}, {11, 33, 1, 501}, {12, 34, 1, 501}, {14, 37, 1, 501}, {11, 34, 1, 502}, {12, 35, 1, 502}, {14, 38, 1, 502}, {11, 36, 1, 503}, {12, 37, 1, 503}, {14, 39, 1, 503}, {11, 37, 1, 504}, {12, 38, 1, 504}, {14, 40, 1, 504}, {11, 39, 1, 505}, {12, 40, 1, 505}, {14, 41, 1, 505}, {12, 27, 1, 506}, {13, 28, 1, 506}, {15, 32, 1, 506}, {12, 28, 1, 507}, {13, 29, 1, 507}, {15, 33, 1, 507}, {12, 29, 1, 508}, {13, 30, 1, 508}, {15, 34, 1, 508}, {12, 30, 1, 509}, {13, 31, 1, 509}, {15, 35, 1, 509}, {12, 32, 1, 510}, {13, 33, 1, 510}, {15, 36, 1, 510}, {12, 33, 1, 511}, {13, 34, 1, 511}, {15, 37, 1, 511}, {12, 34, 1, 512}, {13, 35, 1, 512}, {15, 38, 1, 512}, {12, 36, 1, 513}, {13, 37, 1, 513}, {15, 39, 1, 513}, {12, 37, 1, 514}, {13, 38, 1, 514}, {15, 40, 1, 514}, {12, 39, 1, 515}, {13, 40, 1, 515}, {15, 41, 1, 515}, {14, 27, 1, 516}, {15, 28, 1, 516}, {16, 32, 1, 516}, {14, 28, 1, 517}, {15, 29, 1, 517}, {16, 33, 1, 517}, {14, 29, 1, 518}, {15, 30, 1, 518}, {16, 34, 1, 518}, {14, 30, 1, 519}, {15, 31, 1, 519}, {16, 35, 1, 519}, {14, 32, 1, 520}, {15, 33, 1, 520}, {16, 36, 1, 520}, {14, 33, 1, 521}, {15, 34, 1, 521}, {16, 37, 1, 521}, {14, 34, 1, 522}, {15, 35, 1, 522}, {16, 38, 1, 522}, {14, 36, 1, 523}, {15, 37, 1, 523}, {16, 39, 1, 523}, {14, 37, 1, 524}, {15, 38, 1, 524}, {16, 40, 1, 524}, {14, 39, 1, 525}, {15, 40, 1, 525}, {16, 41, 1, 525}, {17, 27, 1, 526}, {18, 28, 2, 526}, {19, 29, 1, 526}, {21, 32, 2, 526}, {22, 33, 2, 526}, {24, 36, 1, 526}, {17, 28, 1, 527}, {18, 29, 2, 527}, {19, 30, 1, 527}, {21, 33, 2, 527}, {22, 34, 2, 527}, {24, 37, 1, 527}, {17, 29, 1, 528}, {18, 30, 2, 528}, {19, 31, 1, 528}, {21, 34, 2, 528}, {22, 35, 2, 528}, {24, 38, 1, 528}, {17, 32, 1, 529}, {18, 33, 2, 529}, {19, 34, 1, 529}, {21, 36, 2, 529}, {22, 37, 2, 529}, {24, 39, 1, 529}, {17, 33, 1, 530}, {18, 34, 2, 530}, {19, 35, 1, 530}, {21, 37, 2, 530}, {22, 38, 2, 530}, {24, 40, 1, 530}, {17, 36, 1, 531}, {18, 37, 2, 531}, {19, 38, 1, 531}, {21, 39, 2, 531}, {22, 40, 2, 531}, {24, 41, 1, 531}, {18, 27, 1, 532}, {19, 28, 2, 532}, {20, 29, 1, 532}, {22, 32, 2, 532}, {23, 33, 2, 532}, {25, 36, 1, 532}, {18, 28, 1, 533}, {19, 29, 2, 533}, {20, 30, 1, 533}, {22, 33, 2, 533}, {23, 34, 2, 533}, {25, 37, 1, 533}, {18, 29, 1, 534}, {19, 30, 2, 534}, {20, 31, 1, 534}, {22, 34, 2, 534}, {23, 35, 2, 534}, {25, 38, 1, 534}, {18, 32, 1, 535}, {19, 33, 2, 535}, {20, 34, 1, 535}, {22, 36, 2, 535}, {23, 37, 2, 535}, {25, 39, 1, 535}, {18, 33, 1, 536}, {19, 34, 2, 536}, {20, 35, 1, 536}, {22, 37, 2, 536}, {23, 38, 2, 536}, {25, 40, 1, 536}, {18, 36, 1, 537}, {19, 37, 2, 537}, {20, 38, 1, 537}, {22, 39, 2, 537}, {23, 40, 2, 537}, {25, 41, 1, 537}, {21, 27, 1, 538}, {22, 28, 2, 538}, {23, 29, 1, 538}, {24, 32, 2, 538}, {25, 33, 2, 538}, {26, 36, 1, 538}, {21, 28, 1, 539}, {22, 29, 2, 539}, {23, 30, 1, 539}, {24, 33, 2, 539}, {25, 34, 2, 539}, {26, 37, 1, 539}, {21, 29, 1, 540}, {22, 30, 2, 540}, {23, 31, 1, 540}, {24, 34, 2, 540}, {25, 35, 2, 540}, {26, 38, 1, 540}, {21, 32, 1, 541}, {22, 33, 2, 541}, {23, 34, 1, 541}, {24, 36, 2, 541}, {25, 37, 2, 541}, {26, 39, 1, 541}, {21, 33, 1, 542}, {22, 34, 2, 542}, {23, 35, 1, 542}, {24, 37, 2, 542}, {25, 38, 2, 542}, {26, 40, 1, 542}, {21, 36, 1, 543}, {22, 37, 2, 543}, {23, 38, 1, 543}, {24, 39, 2, 543}, {25, 40, 2, 543}, {26, 41, 1, 543}, {17, 17, 1, 544}, {18, 18, 1, 544}, {21, 21, 1, 544}, {17, 18, 1, 545}, {18, 19, 1, 545}, {21, 22, 1, 545}, {17, 19, 1, 546}, {18, 20, 1, 546}, {21, 23, 1, 546}, {17, 21, 1, 547}, {18, 22, 1, 547}, {21, 24, 1, 547}, {17, 22, 1, 548}, {18, 23, 1, 548}, {21, 25, 1, 548}, {17, 24, 1, 549}, {18, 25, 1, 549}, {21, 26, 1, 549}, {18, 17, 1, 550}, {19, 18, 1, 550}, {22, 21, 1, 550}, {18, 18, 1, 551}, {19, 19, 1, 551}, {22, 22, 1, 551}, {18, 19, 1, 552}, {19, 20, 1, 552}, {22, 23, 1, 552}, {18, 21, 1, 553}, {19, 22, 1, 553}, {22, 24, 1, 553}, {18, 22, 1, 554}, {19, 23, 1, 554}, {22, 25, 1, 554}, {18, 24, 1, 555}, {19, 25, 1, 555}, {22, 26, 1, 555}, {19, 17, 1, 556}, {20, 18, 1, 556}, {23, 21, 1, 556}, {19, 18, 1, 557}, {20, 19, 1, 557}, {23, 22, 1, 557}, {19, 19, 1, 558}, {20, 20, 1, 558}, {23, 23, 1, 558}, {19, 21, 1, 559}, {20, 22, 1, 559}, {23, 24, 1, 559}, {19, 22, 1, 560}, {20, 23, 1, 560}, {23, 25, 1, 560}, {19, 24, 1, 561}, {20, 25, 1, 561}, {23, 26, 1, 561}, {21, 17, 1, 562}, {22, 18, 1, 562}, {24, 21, 1, 562}, {21, 18, 1, 563}, {22, 19, 1, 563}, {24, 22, 1, 563}, {21, 19, 1, 564}, {22, 20, 1, 564}, {24, 23, 1, 564}, {21, 21, 1, 565}, {22, 22, 1, 565}, {24, 24, 1, 565}, {21, 22, 1, 566}, {22, 23, 1, 566}, {24, 25, 1, 566}, {21, 24, 1, 567}, {22, 25, 1, 567}, {24, 26, 1, 567}, {22, 17, 1, 568}, {23, 18, 1, 568}, {25, 21, 1, 568}, {22, 18, 1, 569}, {23, 19, 1, 569}, {25, 22, 1, 569}, {22, 19, 1, 570}, {23, 20, 1, 570}, {25, 23, 1, 570}, {22, 21, 1, 571}, {23, 22, 1, 571}, {25, 24, 1, 571}, {22, 22, 1, 572}, {23, 23, 1, 572}, {25, 25, 1, 572}, {22, 24, 1, 573}, {23, 25, 1, 573}, {25, 26, 1, 573}, {24, 17, 1, 574}, {25, 18, 1, 574}, {26, 21, 1, 574}, {24, 18, 1, 575}, {25, 19, 1, 575}, {26, 22, 1, 575}, {24, 19, 1, 576}, {25, 20, 1, 576}, {26, 23, 1, 576}, {24, 21, 1, 577}, {25, 22, 1, 577}, {26, 24, 1, 577}, {24, 22, 1, 578}, {25, 23, 1, 578}, {26, 25, 1, 578}, {24, 24, 1, 579}, {25, 25, 1, 579}, {26, 26, 1, 579}, {27, 27, 1, 580}, {28, 28, 2, 580}, {29, 29, 1, 580}, {32, 32, 2, 580}, {33, 33, 2, 580}, {36, 36, 1, 580}, {27, 28, 1, 581}, {28, 29, 2, 581}, {29, 30, 1, 581}, {32, 33, 2, 581}, {33, 34, 2, 581}, {36, 37, 1, 581}, {27, 29, 1, 582}, {28, 30, 2, 582}, {29, 31, 1, 582}, {32, 34, 2, 582}, {33, 35, 2, 582}, {36, 38, 1, 582}, {27, 32, 1, 583}, {28, 33, 2, 583}, {29, 34, 1, 583}, {32, 36, 2, 583}, {33, 37, 2, 583}, {36, 39, 1, 583}, {27, 33, 1, 584}, {28, 34, 2, 584}, {29, 35, 1, 584}, {32, 37, 2, 584}, {33, 38, 2, 584}, {36, 40, 1, 584}, {27, 36, 1, 585}, {28, 37, 2, 585}, {29, 38, 1, 585}, {32, 39, 2, 585}, {33, 40, 2, 585}, {36, 41, 1, 585}, {28, 27, 1, 586}, {29, 28, 2, 586}, {30, 29, 1, 586}, {33, 32, 2, 586}, {34, 33, 2, 586}, {37, 36, 1, 586}, {28, 28, 1, 587}, {29, 29, 2, 587}, {30, 30, 1, 587}, {33, 33, 2, 587}, {34, 34, 2, 587}, {37, 37, 1, 587}, {28, 29, 1, 588}, {29, 30, 2, 588}, {30, 31, 1, 588}, {33, 34, 2, 588}, {34, 35, 2, 588}, {37, 38, 1, 588}, {28, 32, 1, 589}, {29, 33, 2, 589}, {30, 34, 1, 589}, {33, 36, 2, 589}, {34, 37, 2, 589}, {37, 39, 1, 589}, {28, 33, 1, 590}, {29, 34, 2, 590}, {30, 35, 1, 590}, {33, 37, 2, 590}, {34, 38, 2, 590}, {37, 40, 1, 590}, {28, 36, 1, 591}, {29, 37, 2, 591}, {30, 38, 1, 591}, {33, 39, 2, 591}, {34, 40, 2, 591}, {37, 41, 1, 591}, {29, 27, 1, 592}, {30, 28, 2, 592}, {31, 29, 1, 592}, {34, 32, 2, 592}, {35, 33, 2, 592}, {38, 36, 1, 592}, {29, 28, 1, 593}, {30, 29, 2, 593}, {31, 30, 1, 593}, {34, 33, 2, 593}, {35, 34, 2, 593}, {38, 37, 1, 593}, {29, 29, 1, 594}, {30, 30, 2, 594}, {31, 31, 1, 594}, {34, 34, 2, 594}, {35, 35, 2, 594}, {38, 38, 1, 594}, {29, 32, 1, 595}, {30, 33, 2, 595}, {31, 34, 1, 595}, {34, 36, 2, 595}, {35, 37, 2, 595}, {38, 39, 1, 595}, {29, 33, 1, 596}, {30, 34, 2, 596}, {31, 35, 1, 596}, {34, 37, 2, 596}, {35, 38, 2, 596}, {38, 40, 1, 596}, {29, 36, 1, 597}, {30, 37, 2, 597}, {31, 38, 1, 597}, {34, 39, 2, 597}, {35, 40, 2, 597}, {38, 41, 1, 597}, {32, 27, 1, 598}, {33, 28, 2, 598}, {34, 29, 1, 598}, {36, 32, 2, 598}, {37, 33, 2, 598}, {39, 36, 1, 598}, {32, 28, 1, 599}, {33, 29, 2, 599}, {34, 30, 1, 599}, {36, 33, 2, 599}, {37, 34, 2, 599}, {39, 37, 1, 599}, {32, 29, 1, 600}, {33, 30, 2, 600}, {34, 31, 1, 600}, {36, 34, 2, 600}, {37, 35, 2, 600}, {39, 38, 1, 600}, {32, 32, 1, 601}, {33, 33, 2, 601}, {34, 34, 1, 601}, {36, 36, 2, 601}, {37, 37, 2, 601}, {39, 39, 1, 601}, {32, 33, 1, 602}, {33, 34, 2, 602}, {34, 35, 1, 602}, {36, 37, 2, 602}, {37, 38, 2, 602}, {39, 40, 1, 602}, {32, 36, 1, 603}, {33, 37, 2, 603}, {34, 38, 1, 603}, {36, 39, 2, 603}, {37, 40, 2, 603}, {39, 41, 1, 603}, {33, 27, 1, 604}, {34, 28, 2, 604}, {35, 29, 1, 604}, {37, 32, 2, 604}, {38, 33, 2, 604}, {40, 36, 1, 604}, {33, 28, 1, 605}, {34, 29, 2, 605}, {35, 30, 1, 605}, {37, 33, 2, 605}, {38, 34, 2, 605}, {40, 37, 1, 605}, {33, 29, 1, 606}, {34, 30, 2, 606}, {35, 31, 1, 606}, {37, 34, 2, 606}, {38, 35, 2, 606}, {40, 38, 1, 606}, {33, 32, 1, 607}, {34, 33, 2, 607}, {35, 34, 1, 607}, {37, 36, 2, 607}, {38, 37, 2, 607}, {40, 39, 1, 607}, {33, 33, 1, 608}, {34, 34, 2, 608}, {35, 35, 1, 608}, {37, 37, 2, 608}, {38, 38, 2, 608}, {40, 40, 1, 608}, {33, 36, 1, 609}, {34, 37, 2, 609}, {35, 38, 1, 609}, {37, 39, 2, 609}, {38, 40, 2, 609}, {40, 41, 1, 609}, {36, 27, 1, 610}, {37, 28, 2, 610}, {38, 29, 1, 610}, {39, 32, 2, 610}, {40, 33, 2, 610}, {41, 36, 1, 610}, {36, 28, 1, 611}, {37, 29, 2, 611}, {38, 30, 1, 611}, {39, 33, 2, 611}, {40, 34, 2, 611}, {41, 37, 1, 611}, {36, 29, 1, 612}, {37, 30, 2, 612}, {38, 31, 1, 612}, {39, 34, 2, 612}, {40, 35, 2, 612}, {41, 38, 1, 612}, {36, 32, 1, 613}, {37, 33, 2, 613}, {38, 34, 1, 613}, {39, 36, 2, 613}, {40, 37, 2, 613}, {41, 39, 1, 613}, {36, 33, 1, 614}, {37, 34, 2, 614}, {38, 35, 1, 614}, {39, 37, 2, 614}, {40, 38, 2, 614}, {41, 40, 1, 614}, {36, 36, 1, 615}, {37, 37, 2, 615}, {38, 38, 1, 615}, {39, 39, 2, 615}, {40, 40, 2, 615}, {41, 41, 1, 615}, {1, 280, 1, 616}, {42, 414, 1, 617}, {43, 415, 1, 617}, {44, 416, 1, 617}, {1, 281, 1, 618}, {1, 8, 1, 619}, {1, 9, 1, 620}, {1, 10, 1, 621}, {0, 287, 1, 622}, {8, 45, 1, 623}, {9, 46, 1, 623}, {10, 48, 1, 623}, {8, 46, 1, 624}, {9, 47, 1, 624}, {10, 49, 1, 624}, {8, 48, 1, 625}, {9, 49, 1, 625}, {10, 50, 1, 625}, {42, 418, 1, 626}, {43, 419, 1, 626}, {44, 420, 1, 626}, {11, 42, 1, 627}, {12, 43, 1, 627}, {14, 44, 1, 627}, {12, 42, 1, 628}, {13, 43, 1, 628}, {15, 44, 1, 628}, {14, 42, 1, 629}, {15, 43, 1, 629}, {16, 44, 1, 629}, {1, 282, 1, 630}, {0, 288, 1, 631}, {11, 51, 1, 632}, {12, 52, 2, 632}, {13, 53, 1, 632}, {14, 55, 2, 632}, {15, 56, 2, 632}, {16, 58, 1, 632}, {11, 52, 1, 633}, {12, 53, 2, 633}, {13, 54, 1, 633}, {14, 56, 2, 633}, {15, 57, 2, 633}, {16, 59, 1, 633}, {11, 55, 1, 634}, {12, 56, 2, 634}, {13, 57, 1, 634}, {14, 58, 2, 634}, {15, 59, 2, 634}, {16, 60, 1, 634}, {8, 51, 1, 635}, {9, 52, 1, 635}, {10, 55, 1, 635}, {8, 52, 1, 636}, {9, 53, 1, 636}, {10, 56, 1, 636}, {8, 53, 1, 637}, {9, 54, 1, 637}, {10, 57, 1, 637}, {8, 55, 1, 638}, {9, 56, 1, 638}, {10, 58, 1, 638}, {8, 56, 1, 639}, {9, 57, 1, 639}, {10, 59, 1, 639}, {8, 58, 1, 640}, {9, 59, 1, 640}, {10, 60, 1, 640}, {45, 425, 1, 641}, {46, 426, 2, 641}, {47, 427, 1, 641}, {48, 428, 2, 641}, {49, 429, 2, 641}, {50, 430, 1, 641}, {17, 45, 1, 642}, {18, 46, 2, 642}, {19, 47, 1, 642}, {21, 48, 2, 642}, {22, 49, 2, 642}, {24, 50, 1, 642}, {18, 45, 1, 643}, {19, 46, 2, 643}, {20, 47, 1, 643}, {22, 48, 2, 643}, {23, 49, 2, 643}, {25, 50, 1, 643}, {21, 45, 1, 644}, {22, 46, 2, 644}, {23, 47, 1, 644}, {24, 48, 2, 644}, {25, 49, 2, 644}, {26, 50, 1, 644}, {11, 45, 1, 645}, {12, 46, 1, 645}, {14, 48, 1, 645}, {11, 46, 1, 646}, {12, 47, 1, 646}, {14, 49, 1, 646}, {11, 48, 1, 647}, {12, 49, 1, 647}, {14, 50, 1, 647}, {12, 45, 1, 648}, {13, 46, 1, 648}, {15, 48, 1, 648}, {12, 46, 1, 649}, {13, 47, 1, 649}, {15, 49, 1, 649}, {12, 48, 1, 650}, {13, 49, 1, 650}, {15, 50, 1, 650}, {14, 45, 1, 651}, {15, 46, 1, 651}, {16, 48, 1, 651}, {14, 46, 1, 652}, {15, 47, 1, 652}, {16, 49, 1, 652}, {14, 48, 1, 653}, {15, 49, 1, 653}, {16, 50, 1, 653}, {42, 422, 1, 654}, {43, 423, 1, 654}, {44, 424, 1, 654}, {17, 42, 1, 655}, {18, 43, 1, 655}, {21, 44, 1, 655}, {18, 42, 1, 656}, {19, 43, 1, 656}, {22, 44, 1, 656}, {19, 42, 1, 657}, {20, 43, 1, 657}, {23, 44, 1, 657}, {21, 42, 1, 658}, {22, 43, 1, 658}, {24, 44, 1, 658}, {22, 42, 1, 659}, {23, 43, 1, 659}, {25, 44, 1, 659}, {24, 42, 1, 660}, {25, 43, 1, 660}, {26, 44, 1, 660}, {1, 283, 1, 661}, {0, 289, 1, 662}, {17, 61, 1, 663}, {18, 62, 3, 663}, {19, 63, 3, 663}, {20, 64, 1, 663}, {21, 66, 3, 663}, {22, 67, 6, 663}, {23, 68, 3, 663}, {24, 70, 3, 663}, {25, 71, 3, 663}, {26, 73, 1, 663}, {17, 62, 1, 664}, {18, 63, 3, 664}, {19, 64, 3, 664}, {20, 65, 1, 664}, {21, 67, 3, 664}, {22, 68, 6, 664}, {23, 69, 3, 664}, {24, 71, 3, 664}, {25, 72, 3, 664}, {26, 74, 1, 664}, {17, 66, 1, 665}, {18, 67, 3, 665}, {19, 68, 3, 665}, {20, 69, 1, 665}, {21, 70, 3, 665}, {22, 71, 6, 665}, {23, 72, 3, 665}, {24, 73, 3, 665}, {25, 74, 3, 665}, {26, 75, 1, 665}, {8, 61, 1, 666}, {9, 62, 1, 666}, {10, 66, 1, 666}, {8, 62, 1, 667}, {9, 63, 1, 667}, {10, 67, 1, 667}, {8, 63, 1, 668}, {9, 64, 1, 668}, {10, 68, 1, 668}, {8, 64, 1, 669}, {9, 65, 1, 669}, {10, 69, 1, 669}, {8, 66, 1, 670}, {9, 67, 1, 670}, {10, 70, 1, 670}, {8, 67, 1, 671}, {9, 68, 1, 671}, {10, 71, 1, 671}, {8, 68, 1, 672}, {9, 69, 1, 672}, {10, 72, 1, 672}, {8, 70, 1, 673}, {9, 71, 1, 673}, {10, 73, 1, 673}, {8, 71, 1, 674}, {9, 72, 1, 674}, {10, 74, 1, 674}, {8, 73, 1, 675}, {9, 74, 1, 675}, {10, 75, 1, 675}, {27, 51, 1, 676}, {28, 52, 3, 676}, {29, 53, 3, 676}, {30, 54, 1, 676}, {32, 55, 3, 676}, {33, 56, 6, 676}, {34, 57, 3, 676}, {36, 58, 3, 676}, {37, 59, 3, 676}, {39, 60, 1, 676}, {28, 51, 1, 677}, {29, 52, 3, 677}, {30, 53, 3, 677}, {31, 54, 1, 677}, {33, 55, 3, 677}, {34, 56, 6, 677}, {35, 57, 3, 677}, {37, 58, 3, 677}, {38, 59, 3, 677}, {40, 60, 1, 677}, {32, 51, 1, 678}, {33, 52, 3, 678}, {34, 53, 3, 678}, {35, 54, 1, 678}, {36, 55, 3, 678}, {37, 56, 6, 678}, {38, 57, 3, 678}, {39, 58, 3, 678}, {40, 59, 3, 678}, {41, 60, 1, 678}, {11, 61, 1, 679}, {12, 62, 2, 679}, {13, 63, 1, 679}, {14, 66, 2, 679}, {15, 67, 2, 679}, {16, 70, 1, 679}, {11, 62, 1, 680}, {12, 63, 2, 680}, {13, 64, 1, 680}, {14, 67, 2, 680}, {15, 68, 2, 680}, {16, 71, 1, 680}, {11, 63, 1, 681}, {12, 64, 2, 681}, {13, 65, 1, 681}, {14, 68, 2, 681}, {15, 69, 2, 681}, {16, 72, 1, 681}, {11, 66, 1, 682}, {12, 67, 2, 682}, {13, 68, 1, 682}, {14, 70, 2, 682}, {15, 71, 2, 682}, {16, 73, 1, 682}, {11, 67, 1, 683}, {12, 68, 2, 683}, {13, 69, 1, 683}, {14, 71, 2, 683}, {15, 72, 2, 683}, {16, 74, 1, 683}, {11, 70, 1, 684}, {12, 71, 2, 684}, {13, 72, 1, 684}, {14, 73, 2, 684}, {15, 74, 2, 684}, {16, 75, 1, 684}, {17, 51, 1, 685}, {18, 52, 2, 685}, {19, 53, 1, 685}, {21, 55, 2, 685}, {22, 56, 2, 685}, {24, 58, 1, 685}, {17, 52, 1, 686}, {18, 53, 2, 686}, {19, 54, 1, 686}, {21, 56, 2, 686}, {22, 57, 2, 686}, {24, 59, 1, 686}, {17, 55, 1, 687}, {18, 56, 2, 687}, {19, 57, 1, 687}, {21, 58, 2, 687}, {22, 59, 2, 687}, {24, 60, 1, 687}, {18, 51, 1, 688}, {19, 52, 2, 688}, {20, 53, 1, 688}, {22, 55, 2, 688}, {23, 56, 2, 688}, {25, 58, 1, 688}, {18, 52, 1, 689}, {19, 53, 2, 689}, {20, 54, 1, 689}, {22, 56, 2, 689}, {23, 57, 2, 689}, {25, 59, 1, 689}, {18, 55, 1, 690}, {19, 56, 2, 690}, {20, 57, 1, 690}, {22, 58, 2, 690}, {23, 59, 2, 690}, {25, 60, 1, 690}, {21, 51, 1, 691}, {22, 52, 2, 691}, {23, 53, 1, 691}, {24, 55, 2, 691}, {25, 56, 2, 691}, {26, 58, 1, 691}, {21, 52, 1, 692}, {22, 53, 2, 692}, {23, 54, 1, 692}, {24, 56, 2, 692}, {25, 57, 2, 692}, {26, 59, 1, 692}, {21, 55, 1, 693}, {22, 56, 2, 693}, {23, 57, 1, 693}, {24, 58, 2, 693}, {25, 59, 2, 693}, {26, 60, 1, 693}, {11, 51, 1, 694}, {12, 52, 1, 694}, {14, 55, 1, 694}, {11, 52, 1, 695}, {12, 53, 1, 695}, {14, 56, 1, 695}, {11, 53, 1, 696}, {12, 54, 1, 696}, {14, 57, 1, 696}, {11, 55, 1, 697}, {12, 56, 1, 697}, {14, 58, 1, 697}, {11, 56, 1, 698}, {12, 57, 1, 698}, {14, 59, 1, 698}, {11, 58, 1, 699}, {12, 59, 1, 699}, {14, 60, 1, 699}, {12, 51, 1, 700}, {13, 52, 1, 700}, {15, 55, 1, 700}, {12, 52, 1, 701}, {13, 53, 1, 701}, {15, 56, 1, 701}, {12, 53, 1, 702}, {13, 54, 1, 702}, {15, 57, 1, 702}, {12, 55, 1, 703}, {13, 56, 1, 703}, {15, 58, 1, 703}, {12, 56, 1, 704}, {13, 57, 1, 704}, {15, 59, 1, 704}, {12, 58, 1, 705}, {13, 59, 1, 705}, {15, 60, 1, 705}, {14, 51, 1, 706}, {15, 52, 1, 706}, {16, 55, 1, 706}, {14, 52, 1, 707}, {15, 53, 1, 707}, {16, 56, 1, 707}, {14, 53, 1, 708}, {15, 54, 1, 708}, {16, 57, 1, 708}, {14, 55, 1, 709}, {15, 56, 1, 709}, {16, 58, 1, 709}, {14, 56, 1, 710}, {15, 57, 1, 710}, {16, 59, 1, 710}, {14, 58, 1, 711}, {15, 59, 1, 711}, {16, 60, 1, 711}, {45, 454, 1, 712}, {46, 455, 2, 712}, {47, 456, 1, 712}, {48, 457, 2, 712}, {49, 458, 2, 712}, {50, 459, 1, 712}, {27, 45, 1, 713}, {28, 46, 2, 713}, {29, 47, 1, 713}, {32, 48, 2, 713}, {33, 49, 2, 713}, {36, 50, 1, 713}, {28, 45, 1, 714}, {29, 46, 2, 714}, {30, 47, 1, 714}, {33, 48, 2, 714}, {34, 49, 2, 714}, {37, 50, 1, 714}, {29, 45, 1, 715}, {30, 46, 2, 715}, {31, 47, 1, 715}, {34, 48, 2, 715}, {35, 49, 2, 715}, {38, 50, 1, 715}, {32, 45, 1, 716}, {33, 46, 2, 716}, {34, 47, 1, 716}, {36, 48, 2, 716}, {37, 49, 2, 716}, {39, 50, 1, 716}, {33, 45, 1, 717}, {34, 46, 2, 717}, {35, 47, 1, 717}, {37, 48, 2, 717}, {38, 49, 2, 717}, {40, 50, 1, 717}, {36, 45, 1, 718}, {37, 46, 2, 718}, {38, 47, 1, 718}, {39, 48, 2, 718}, {40, 49, 2, 718}, {41, 50, 1, 718}, {45, 460, 1, 719}, {46, 463, 1, 719}, {48, 466, 1, 719}, {46, 461, 1, 719}, {47, 464, 1, 719}, {49, 467, 1, 719}, {48, 462, 1, 719}, {49, 465, 1, 719}, {50, 468, 1, 719}, {17, 45, 1, 720}, {18, 46, 1, 720}, {21, 48, 1, 720}, {17, 46, 1, 721}, {18, 47, 1, 721}, {21, 49, 1, 721}, {17, 48, 1, 722}, {18, 49, 1, 722}, {21, 50, 1, 722}, {18, 45, 1, 723}, {19, 46, 1, 723}, {22, 48, 1, 723}, {18, 46, 1, 724}, {19, 47, 1, 724}, {22, 49, 1, 724}, {18, 48, 1, 725}, {19, 49, 1, 725}, {22, 50, 1, 725}, {19, 45, 1, 726}, {20, 46, 1, 726}, {23, 48, 1, 726}, {19, 46, 1, 727}, {20, 47, 1, 727}, {23, 49, 1, 727}, {19, 48, 1, 728}, {20, 49, 1, 728}, {23, 50, 1, 728}, {21, 45, 1, 729}, {22, 46, 1, 729}, {24, 48, 1, 729}, {21, 46, 1, 730}, {22, 47, 1, 730}, {24, 49, 1, 730}, {21, 48, 1, 731}, {22, 49, 1, 731}, {24, 50, 1, 731}, {22, 45, 1, 732}, {23, 46, 1, 732}, {25, 48, 1, 732}, {22, 46, 1, 733}, {23, 47, 1, 733}, {25, 49, 1, 733}, {22, 48, 1, 734}, {23, 49, 1, 734}, {25, 50, 1, 734}, {24, 45, 1, 735}, {25, 46, 1, 735}, {26, 48, 1, 735}, {24, 46, 1, 736}, {25, 47, 1, 736}, {26, 49, 1, 736}, {24, 48, 1, 737}, {25, 49, 1, 737}, {26, 50, 1, 737}, {42, 441, 1, 738}, {43, 442, 1, 738}, {44, 443, 1, 738}, {1, 284, 1, 739}, {27, 61, 1, 740}, {28, 62, 3, 740}, {29, 63, 3, 740}, {30, 64, 1, 740}, {32, 66, 3, 740}, {33, 67, 6, 740}, {34, 68, 3, 740}, {36, 70, 3, 740}, {37, 71, 3, 740}, {39, 73, 1, 740}, {27, 62, 1, 741}, {28, 63, 3, 741}, {29, 64, 3, 741}, {30, 65, 1, 741}, {32, 67, 3, 741}, {33, 68, 6, 741}, {34, 69, 3, 741}, {36, 71, 3, 741}, {37, 72, 3, 741}, {39, 74, 1, 741}, {27, 66, 1, 742}, {28, 67, 3, 742}, {29, 68, 3, 742}, {30, 69, 1, 742}, {32, 70, 3, 742}, {33, 71, 6, 742}, {34, 72, 3, 742}, {36, 73, 3, 742}, {37, 74, 3, 742}, {39, 75, 1, 742}, {28, 61, 1, 743}, {29, 62, 3, 743}, {30, 63, 3, 743}, {31, 64, 1, 743}, {33, 66, 3, 743}, {34, 67, 6, 743}, {35, 68, 3, 743}, {37, 70, 3, 743}, {38, 71, 3, 743}, {40, 73, 1, 743}, {28, 62, 1, 744}, {29, 63, 3, 744}, {30, 64, 3, 744}, {31, 65, 1, 744}, {33, 67, 3, 744}, {34, 68, 6, 744}, {35, 69, 3, 744}, {37, 71, 3, 744}, {38, 72, 3, 744}, {40, 74, 1, 744}, {28, 66, 1, 745}, {29, 67, 3, 745}, {30, 68, 3, 745}, {31, 69, 1, 745}, {33, 70, 3, 745}, {34, 71, 6, 745}, {35, 72, 3, 745}, {37, 73, 3, 745}, {38, 74, 3, 745}, {40, 75, 1, 745}, {32, 61, 1, 746}, {33, 62, 3, 746}, {34, 63, 3, 746}, {35, 64, 1, 746}, {36, 66, 3, 746}, {37, 67, 6, 746}, {38, 68, 3, 746}, {39, 70, 3, 746}, {40, 71, 3, 746}, {41, 73, 1, 746}, {32, 62, 1, 747}, {33, 63, 3, 747}, {34, 64, 3, 747}, {35, 65, 1, 747}, {36, 67, 3, 747}, {37, 68, 6, 747}, {38, 69, 3, 747}, {39, 71, 3, 747}, {40, 72, 3, 747}, {41, 74, 1, 747}, {32, 66, 1, 748}, {33, 67, 3, 748}, {34, 68, 3, 748}, {35, 69, 1, 748}, {36, 70, 3, 748}, {37, 71, 6, 748}, {38, 72, 3, 748}, {39, 73, 3, 748}, {40, 74, 3, 748}, {41, 75, 1, 748}, {11, 61, 1, 749}, {12, 62, 1, 749}, {14, 66, 1, 749}, {11, 62, 1, 750}, {12, 63, 1, 750}, {14, 67, 1, 750}, {11, 63, 1, 751}, {12, 64, 1, 751}, {14, 68, 1, 751}, {11, 64, 1, 752}, {12, 65, 1, 752}, {14, 69, 1, 752}, {11, 66, 1, 753}, {12, 67, 1, 753}, {14, 70, 1, 753}, {11, 67, 1, 754}, {12, 68, 1, 754}, {14, 71, 1, 754}, {11, 68, 1, 755}, {12, 69, 1, 755}, {14, 72, 1, 755}, {11, 70, 1, 756}, {12, 71, 1, 756}, {14, 73, 1, 756}, {11, 71, 1, 757}, {12, 72, 1, 757}, {14, 74, 1, 757}, {11, 73, 1, 758}, {12, 74, 1, 758}, {14, 75, 1, 758}, {12, 61, 1, 759}, {13, 62, 1, 759}, {15, 66, 1, 759}, {12, 62, 1, 760}, {13, 63, 1, 760}, {15, 67, 1, 760}, {12, 63, 1, 761}, {13, 64, 1, 761}, {15, 68, 1, 761}, {12, 64, 1, 762}, {13, 65, 1, 762}, {15, 69, 1, 762}, {12, 66, 1, 763}, {13, 67, 1, 763}, {15, 70, 1, 763}, {12, 67, 1, 764}, {13, 68, 1, 764}, {15, 71, 1, 764}, {12, 68, 1, 765}, {13, 69, 1, 765}, {15, 72, 1, 765}, {12, 70, 1, 766}, {13, 71, 1, 766}, {15, 73, 1, 766}, {12, 71, 1, 767}, {13, 72, 1, 767}, {15, 74, 1, 767}, {12, 73, 1, 768}, {13, 74, 1, 768}, {15, 75, 1, 768}, {14, 61, 1, 769}, {15, 62, 1, 769}, {16, 66, 1, 769}, {14, 62, 1, 770}, {15, 63, 1, 770}, {16, 67, 1, 770}, {14, 63, 1, 771}, {15, 64, 1, 771}, {16, 68, 1, 771}, {14, 64, 1, 772}, {15, 65, 1, 772}, {16, 69, 1, 772}, {14, 66, 1, 773}, {15, 67, 1, 773}, {16, 70, 1, 773}, {14, 67, 1, 774}, {15, 68, 1, 774}, {16, 71, 1, 774}, {14, 68, 1, 775}, {15, 69, 1, 775}, {16, 72, 1, 775}, {14, 70, 1, 776}, {15, 71, 1, 776}, {16, 73, 1, 776}, {14, 71, 1, 777}, {15, 72, 1, 777}, {16, 74, 1, 777}, {14, 73, 1, 778}, {15, 74, 1, 778}, {16, 75, 1, 778}, {17, 61, 1, 779}, {18, 62, 2, 779}, {19, 63, 1, 779}, {21, 66, 2, 779}, {22, 67, 2, 779}, {24, 70, 1, 779}, {17, 62, 1, 780}, {18, 63, 2, 780}, {19, 64, 1, 780}, {21, 67, 2, 780}, {22, 68, 2, 780}, {24, 71, 1, 780}, {17, 63, 1, 781}, {18, 64, 2, 781}, {19, 65, 1, 781}, {21, 68, 2, 781}, {22, 69, 2, 781}, {24, 72, 1, 781}, {17, 66, 1, 782}, {18, 67, 2, 782}, {19, 68, 1, 782}, {21, 70, 2, 782}, {22, 71, 2, 782}, {24, 73, 1, 782}, {17, 67, 1, 783}, {18, 68, 2, 783}, {19, 69, 1, 783}, {21, 71, 2, 783}, {22, 72, 2, 783}, {24, 74, 1, 783}, {17, 70, 1, 784}, {18, 71, 2, 784}, {19, 72, 1, 784}, {21, 73, 2, 784}, {22, 74, 2, 784}, {24, 75, 1, 784}, {18, 61, 1, 785}, {19, 62, 2, 785}, {20, 63, 1, 785}, {22, 66, 2, 785}, {23, 67, 2, 785}, {25, 70, 1, 785}, {18, 62, 1, 786}, {19, 63, 2, 786}, {20, 64, 1, 786}, {22, 67, 2, 786}, {23, 68, 2, 786}, {25, 71, 1, 786}, {18, 63, 1, 787}, {19, 64, 2, 787}, {20, 65, 1, 787}, {22, 68, 2, 787}, {23, 69, 2, 787}, {25, 72, 1, 787}, {18, 66, 1, 788}, {19, 67, 2, 788}, {20, 68, 1, 788}, {22, 70, 2, 788}, {23, 71, 2, 788}, {25, 73, 1, 788}, {18, 67, 1, 789}, {19, 68, 2, 789}, {20, 69, 1, 789}, {22, 71, 2, 789}, {23, 72, 2, 789}, {25, 74, 1, 789}, {18, 70, 1, 790}, {19, 71, 2, 790}, {20, 72, 1, 790}, {22, 73, 2, 790}, {23, 74, 2, 790}, {25, 75, 1, 790}, {21, 61, 1, 791}, {22, 62, 2, 791}, {23, 63, 1, 791}, {24, 66, 2, 791}, {25, 67, 2, 791}, {26, 70, 1, 791}, {21, 62, 1, 792}, {22, 63, 2, 792}, {23, 64, 1, 792}, {24, 67, 2, 792}, {25, 68, 2, 792}, {26, 71, 1, 792}, {21, 63, 1, 793}, {22, 64, 2, 793}, {23, 65, 1, 793}, {24, 68, 2, 793}, {25, 69, 2, 793}, {26, 72, 1, 793}, {21, 66, 1, 794}, {22, 67, 2, 794}, {23, 68, 1, 794}, {24, 70, 2, 794}, {25, 71, 2, 794}, {26, 73, 1, 794}, {21, 67, 1, 795}, {22, 68, 2, 795}, {23, 69, 1, 795}, {24, 71, 2, 795}, {25, 72, 2, 795}, {26, 74, 1, 795}, {21, 70, 1, 796}, {22, 71, 2, 796}, {23, 72, 1, 796}, {24, 73, 2, 796}, {25, 74, 2, 796}, {26, 75, 1, 796}, {51, 526, 1, 797}, {52, 532, 1, 797}, {55, 538, 1, 797}, {52, 527, 2, 797}, {53, 533, 2, 797}, {56, 539, 2, 797}, {53, 528, 1, 797}, {54, 534, 1, 797}, {57, 540, 1, 797}, {55, 529, 2, 797}, {56, 535, 2, 797}, {58, 541, 2, 797}, {56, 530, 2, 797}, {57, 536, 2, 797}, {59, 542, 2, 797}, {58, 531, 1, 797}, {59, 537, 1, 797}, {60, 543, 1, 797}, {27, 51, 1, 798}, {28, 52, 2, 798}, {29, 53, 1, 798}, {32, 55, 2, 798}, {33, 56, 2, 798}, {36, 58, 1, 798}, {27, 52, 1, 799}, {28, 53, 2, 799}, {29, 54, 1, 799}, {32, 56, 2, 799}, {33, 57, 2, 799}, {36, 59, 1, 799}, {27, 55, 1, 800}, {28, 56, 2, 800}, {29, 57, 1, 800}, {32, 58, 2, 800}, {33, 59, 2, 800}, {36, 60, 1, 800}, {28, 51, 1, 801}, {29, 52, 2, 801}, {30, 53, 1, 801}, {33, 55, 2, 801}, {34, 56, 2, 801}, {37, 58, 1, 801}, {28, 52, 1, 802}, {29, 53, 2, 802}, {30, 54, 1, 802}, {33, 56, 2, 802}, {34, 57, 2, 802}, {37, 59, 1, 802}, {28, 55, 1, 803}, {29, 56, 2, 803}, {30, 57, 1, 803}, {33, 58, 2, 803}, {34, 59, 2, 803}, {37, 60, 1, 803}, {29, 51, 1, 804}, {30, 52, 2, 804}, {31, 53, 1, 804}, {34, 55, 2, 804}, {35, 56, 2, 804}, {38, 58, 1, 804}, {29, 52, 1, 805}, {30, 53, 2, 805}, {31, 54, 1, 805}, {34, 56, 2, 805}, {35, 57, 2, 805}, {38, 59, 1, 805}, {29, 55, 1, 806}, {30, 56, 2, 806}, {31, 57, 1, 806}, {34, 58, 2, 806}, {35, 59, 2, 806}, {38, 60, 1, 806}, {32, 51, 1, 807}, {33, 52, 2, 807}, {34, 53, 1, 807}, {36, 55, 2, 807}, {37, 56, 2, 807}, {39, 58, 1, 807}, {32, 52, 1, 808}, {33, 53, 2, 808}, {34, 54, 1, 808}, {36, 56, 2, 808}, {37, 57, 2, 808}, {39, 59, 1, 808}, {32, 55, 1, 809}, {33, 56, 2, 809}, {34, 57, 1, 809}, {36, 58, 2, 809}, {37, 59, 2, 809}, {39, 60, 1, 809}, {33, 51, 1, 810}, {34, 52, 2, 810}, {35, 53, 1, 810}, {37, 55, 2, 810}, {38, 56, 2, 810}, {40, 58, 1, 810}, {33, 52, 1, 811}, {34, 53, 2, 811}, {35, 54, 1, 811}, {37, 56, 2, 811}, {38, 57, 2, 811}, {40, 59, 1, 811}, {33, 55, 1, 812}, {34, 56, 2, 812}, {35, 57, 1, 812}, {37, 58, 2, 812}, {38, 59, 2, 812}, {40, 60, 1, 812}, {36, 51, 1, 813}, {37, 52, 2, 813}, {38, 53, 1, 813}, {39, 55, 2, 813}, {40, 56, 2, 813}, {41, 58, 1, 813}, {36, 52, 1, 814}, {37, 53, 2, 814}, {38, 54, 1, 814}, {39, 56, 2, 814}, {40, 57, 2, 814}, {41, 59, 1, 814}, {36, 55, 1, 815}, {37, 56, 2, 815}, {38, 57, 1, 815}, {39, 58, 2, 815}, {40, 59, 2, 815}, {41, 60, 1, 815}, {17, 51, 1, 816}, {18, 52, 1, 816}, {21, 55, 1, 816}, {17, 52, 1, 817}, {18, 53, 1, 817}, {21, 56, 1, 817}, {17, 53, 1, 818}, {18, 54, 1, 818}, {21, 57, 1, 818}, {17, 55, 1, 819}, {18, 56, 1, 819}, {21, 58, 1, 819}, {17, 56, 1, 820}, {18, 57, 1, 820}, {21, 59, 1, 820}, {17, 58, 1, 821}, {18, 59, 1, 821}, {21, 60, 1, 821}, {18, 51, 1, 822}, {19, 52, 1, 822}, {22, 55, 1, 822}, {18, 52, 1, 823}, {19, 53, 1, 823}, {22, 56, 1, 823}, {18, 53, 1, 824}, {19, 54, 1, 824}, {22, 57, 1, 824}, {18, 55, 1, 825}, {19, 56, 1, 825}, {22, 58, 1, 825}, {18, 56, 1, 826}, {19, 57, 1, 826}, {22, 59, 1, 826}, {18, 58, 1, 827}, {19, 59, 1, 827}, {22, 60, 1, 827}, {19, 51, 1, 828}, {20, 52, 1, 828}, {23, 55, 1, 828}, {19, 52, 1, 829}, {20, 53, 1, 829}, {23, 56, 1, 829}, {19, 53, 1, 830}, {20, 54, 1, 830}, {23, 57, 1, 830}, {19, 55, 1, 831}, {20, 56, 1, 831}, {23, 58, 1, 831}, {19, 56, 1, 832}, {20, 57, 1, 832}, {23, 59, 1, 832}, {19, 58, 1, 833}, {20, 59, 1, 833}, {23, 60, 1, 833}, {21, 51, 1, 834}, {22, 52, 1, 834}, {24, 55, 1, 834}, {21, 52, 1, 835}, {22, 53, 1, 835}, {24, 56, 1, 835}, {21, 53, 1, 836}, {22, 54, 1, 836}, {24, 57, 1, 836}, {21, 55, 1, 837}, {22, 56, 1, 837}, {24, 58, 1, 837}, {21, 56, 1, 838}, {22, 57, 1, 838}, {24, 59, 1, 838}, {21, 58, 1, 839}, {22, 59, 1, 839}, {24, 60, 1, 839}, {22, 51, 1, 840}, {23, 52, 1, 840}, {25, 55, 1, 840}, {22, 52, 1, 841}, {23, 53, 1, 841}, {25, 56, 1, 841}, {22, 53, 1, 842}, {23, 54, 1, 842}, {25, 57, 1, 842}, {22, 55, 1, 843}, {23, 56, 1, 843}, {25, 58, 1, 843}, {22, 56, 1, 844}, {23, 57, 1, 844}, {25, 59, 1, 844}, {22, 58, 1, 845}, {23, 59, 1, 845}, {25, 60, 1, 845}, {24, 51, 1, 846}, {25, 52, 1, 846}, {26, 55, 1, 846}, {24, 52, 1, 847}, {25, 53, 1, 847}, {26, 56, 1, 847}, {24, 53, 1, 848}, {25, 54, 1, 848}, {26, 57, 1, 848}, {24, 55, 1, 849}, {25, 56, 1, 849}, {26, 58, 1, 849}, {24, 56, 1, 850}, {25, 57, 1, 850}, {26, 59, 1, 850}, {24, 58, 1, 851}, {25, 59, 1, 851}, {26, 60, 1, 851}, {45, 487, 1, 852}, {46, 490, 1, 852}, {48, 493, 1, 852}, {46, 488, 1, 852}, {47, 491, 1, 852}, {49, 494, 1, 852}, {48, 489, 1, 852}, {49, 492, 1, 852}, {50, 495, 1, 852}, {27, 45, 1, 853}, {28, 46, 1, 853}, {32, 48, 1, 853}, {27, 46, 1, 854}, {28, 47, 1, 854}, {32, 49, 1, 854}, {27, 48, 1, 855}, {28, 49, 1, 855}, {32, 50, 1, 855}, {28, 45, 1, 856}, {29, 46, 1, 856}, {33, 48, 1, 856}, {28, 46, 1, 857}, {29, 47, 1, 857}, {33, 49, 1, 857}, {28, 48, 1, 858}, {29, 49, 1, 858}, {33, 50, 1, 858}, {29, 45, 1, 859}, {30, 46, 1, 859}, {34, 48, 1, 859}, {29, 46, 1, 860}, {30, 47, 1, 860}, {34, 49, 1, 860}, {29, 48, 1, 861}, {30, 49, 1, 861}, {34, 50, 1, 861}, {30, 45, 1, 862}, {31, 46, 1, 862}, {35, 48, 1, 862}, {30, 46, 1, 863}, {31, 47, 1, 863}, {35, 49, 1, 863}, {30, 48, 1, 864}, {31, 49, 1, 864}, {35, 50, 1, 864}, {32, 45, 1, 865}, {33, 46, 1, 865}, {36, 48, 1, 865}, {32, 46, 1, 866}, {33, 47, 1, 866}, {36, 49, 1, 866}, {32, 48, 1, 867}, {33, 49, 1, 867}, {36, 50, 1, 867}, {33, 45, 1, 868}, {34, 46, 1, 868}, {37, 48, 1, 868}, {33, 46, 1, 869}, {34, 47, 1, 869}, {37, 49, 1, 869}, {33, 48, 1, 870}, {34, 49, 1, 870}, {37, 50, 1, 870}, {34, 45, 1, 871}, {35, 46, 1, 871}, {38, 48, 1, 871}, {34, 46, 1, 872}, {35, 47, 1, 872}, {38, 49, 1, 872}, {34, 48, 1, 873}, {35, 49, 1, 873}, {38, 50, 1, 873}, {36, 45, 1, 874}, {37, 46, 1, 874}, {39, 48, 1, 874}, {36, 46, 1, 875}, {37, 47, 1, 875}, {39, 49, 1, 875}, {36, 48, 1, 876}, {37, 49, 1, 876}, {39, 50, 1, 876}, {37, 45, 1, 877}, {38, 46, 1, 877}, {40, 48, 1, 877}, {37, 46, 1, 878}, {38, 47, 1, 878}, {40, 49, 1, 878}, {37, 48, 1, 879}, {38, 49, 1, 879}, {40, 50, 1, 879}, {39, 45, 1, 880}, {40, 46, 1, 880}, {41, 48, 1, 880}, {39, 46, 1, 881}, {40, 47, 1, 881}, {41, 49, 1, 881}, {39, 48, 1, 882}, {40, 49, 1, 882}, {41, 50, 1, 882}, {61, 580, 1, 883}, {62, 586, 2, 883}, {63, 592, 1, 883}, {66, 598, 2, 883}, {67, 604, 2, 883}, {70, 610, 1, 883}, {62, 581, 2, 883}, {63, 587, 4, 883}, {64, 593, 2, 883}, {67, 599, 4, 883}, {68, 605, 4, 883}, {71, 611, 2, 883}, {63, 582, 1, 883}, {64, 588, 2, 883}, {65, 594, 1, 883}, {68, 600, 2, 883}, {69, 606, 2, 883}, {72, 612, 1, 883}, {66, 583, 2, 883}, {67, 589, 4, 883}, {68, 595, 2, 883}, {70, 601, 4, 883}, {71, 607, 4, 883}, {73, 613, 2, 883}, {67, 584, 2, 883}, {68, 590, 4, 883}, {69, 596, 2, 883}, {71, 602, 4, 883}, {72, 608, 4, 883}, {74, 614, 2, 883}, {70, 585, 1, 883}, {71, 591, 2, 883}, {72, 597, 1, 883}, {73, 603, 2, 883}, {74, 609, 2, 883}, {75, 615, 1, 883}, {27, 61, 1, 884}, {28, 62, 2, 884}, {29, 63, 1, 884}, {32, 66, 2, 884}, {33, 67, 2, 884}, {36, 70, 1, 884}, {27, 62, 1, 885}, {28, 63, 2, 885}, {29, 64, 1, 885}, {32, 67, 2, 885}, {33, 68, 2, 885}, {36, 71, 1, 885}, {27, 63, 1, 886}, {28, 64, 2, 886}, {29, 65, 1, 886}, {32, 68, 2, 886}, {33, 69, 2, 886}, {36, 72, 1, 886}, {27, 66, 1, 887}, {28, 67, 2, 887}, {29, 68, 1, 887}, {32, 70, 2, 887}, {33, 71, 2, 887}, {36, 73, 1, 887}, {27, 67, 1, 888}, {28, 68, 2, 888}, {29, 69, 1, 888}, {32, 71, 2, 888}, {33, 72, 2, 888}, {36, 74, 1, 888}, {27, 70, 1, 889}, {28, 71, 2, 889}, {29, 72, 1, 889}, {32, 73, 2, 889}, {33, 74, 2, 889}, {36, 75, 1, 889}, {28, 61, 1, 890}, {29, 62, 2, 890}, {30, 63, 1, 890}, {33, 66, 2, 890}, {34, 67, 2, 890}, {37, 70, 1, 890}, {28, 62, 1, 891}, {29, 63, 2, 891}, {30, 64, 1, 891}, {33, 67, 2, 891}, {34, 68, 2, 891}, {37, 71, 1, 891}, {28, 63, 1, 892}, {29, 64, 2, 892}, {30, 65, 1, 892}, {33, 68, 2, 892}, {34, 69, 2, 892}, {37, 72, 1, 892}, {28, 66, 1, 893}, {29, 67, 2, 893}, {30, 68, 1, 893}, {33, 70, 2, 893}, {34, 71, 2, 893}, {37, 73, 1, 893}, {28, 67, 1, 894}, {29, 68, 2, 894}, {30, 69, 1, 894}, {33, 71, 2, 894}, {34, 72, 2, 894}, {37, 74, 1, 894}, {28, 70, 1, 895}, {29, 71, 2, 895}, {30, 72, 1, 895}, {33, 73, 2, 895}, {34, 74, 2, 895}, {37, 75, 1, 895}, {29, 61, 1, 896}, {30, 62, 2, 896}, {31, 63, 1, 896}, {34, 66, 2, 896}, {35, 67, 2, 896}, {38, 70, 1, 896}, {29, 62, 1, 897}, {30, 63, 2, 897}, {31, 64, 1, 897}, {34, 67, 2, 897}, {35, 68, 2, 897}, {38, 71, 1, 897}, {29, 63, 1, 898}, {30, 64, 2, 898}, {31, 65, 1, 898}, {34, 68, 2, 898}, {35, 69, 2, 898}, {38, 72, 1, 898}, {29, 66, 1, 899}, {30, 67, 2, 899}, {31, 68, 1, 899}, {34, 70, 2, 899}, {35, 71, 2, 899}, {38, 73, 1, 899}, {29, 67, 1, 900}, {30, 68, 2, 900}, {31, 69, 1, 900}, {34, 71, 2, 900}, {35, 72, 2, 900}, {38, 74, 1, 900}, {29, 70, 1, 901}, {30, 71, 2, 901}, {31, 72, 1, 901}, {34, 73, 2, 901}, {35, 74, 2, 901}, {38, 75, 1, 901}, {32, 61, 1, 902}, {33, 62, 2, 902}, {34, 63, 1, 902}, {36, 66, 2, 902}, {37, 67, 2, 902}, {39, 70, 1, 902}, {32, 62, 1, 903}, {33, 63, 2, 903}, {34, 64, 1, 903}, {36, 67, 2, 903}, {37, 68, 2, 903}, {39, 71, 1, 903}, {32, 63, 1, 904}, {33, 64, 2, 904}, {34, 65, 1, 904}, {36, 68, 2, 904}, {37, 69, 2, 904}, {39, 72, 1, 904}, {32, 66, 1, 905}, {33, 67, 2, 905}, {34, 68, 1, 905}, {36, 70, 2, 905}, {37, 71, 2, 905}, {39, 73, 1, 905}, {32, 67, 1, 906}, {33, 68, 2, 906}, {34, 69, 1, 906}, {36, 71, 2, 906}, {37, 72, 2, 906}, {39, 74, 1, 906}, {32, 70, 1, 907}, {33, 71, 2, 907}, {34, 72, 1, 907}, {36, 73, 2, 907}, {37, 74, 2, 907}, {39, 75, 1, 907}, {33, 61, 1, 908}, {34, 62, 2, 908}, {35, 63, 1, 908}, {37, 66, 2, 908}, {38, 67, 2, 908}, {40, 70, 1, 908}, {33, 62, 1, 909}, {34, 63, 2, 909}, {35, 64, 1, 909}, {37, 67, 2, 909}, {38, 68, 2, 909}, {40, 71, 1, 909}, {33, 63, 1, 910}, {34, 64, 2, 910}, {35, 65, 1, 910}, {37, 68, 2, 910}, {38, 69, 2, 910}, {40, 72, 1, 910}, {33, 66, 1, 911}, {34, 67, 2, 911}, {35, 68, 1, 911}, {37, 70, 2, 911}, {38, 71, 2, 911}, {40, 73, 1, 911}, {33, 67, 1, 912}, {34, 68, 2, 912}, {35, 69, 1, 912}, {37, 71, 2, 912}, {38, 72, 2, 912}, {40, 74, 1, 912}, {33, 70, 1, 913}, {34, 71, 2, 913}, {35, 72, 1, 913}, {37, 73, 2, 913}, {38, 74, 2, 913}, {40, 75, 1, 913}, {36, 61, 1, 914}, {37, 62, 2, 914}, {38, 63, 1, 914}, {39, 66, 2, 914}, {40, 67, 2, 914}, {41, 70, 1, 914}, {36, 62, 1, 915}, {37, 63, 2, 915}, {38, 64, 1, 915}, {39, 67, 2, 915}, {40, 68, 2, 915}, {41, 71, 1, 915}, {36, 63, 1, 916}, {37, 64, 2, 916}, {38, 65, 1, 916}, {39, 68, 2, 916}, {40, 69, 2, 916}, {41, 72, 1, 916}, {36, 66, 1, 917}, {37, 67, 2, 917}, {38, 68, 1, 917}, {39, 70, 2, 917}, {40, 71, 2, 917}, {41, 73, 1, 917}, {36, 67, 1, 918}, {37, 68, 2, 918}, {38, 69, 1, 918}, {39, 71, 2, 918}, {40, 72, 2, 918}, {41, 74, 1, 918}, {36, 70, 1, 919}, {37, 71, 2, 919}, {38, 72, 1, 919}, {39, 73, 2, 919}, {40, 74, 2, 919}, {41, 75, 1, 919}, {2, 280, 1, 920}, {1, 285, 1, 921}, {0, 76, 1, 922}, {0, 77, 1, 923}, {0, 78, 1, 924}, {0, 293, 1, 925}, {2, 8, 1, 926}, {2, 9, 1, 927}, {2, 10, 1, 928}, {42, 619, 1, 929}, {43, 620, 1, 929}, {44, 621, 1, 929}, {1, 42, 1, 930}, {1, 43, 1, 931}, {1, 44, 1, 932}, {0, 294, 1, 933}, {0, 295, 1, 934}, {8, 79, 1, 935}, {9, 80, 1, 935}, {10, 82, 1, 935}, {8, 80, 1, 936}, {9, 81, 1, 936}, {10, 83, 1, 936}, {8, 82, 1, 937}, {9, 83, 1, 937}, {10, 84, 1, 937}, {11, 76, 1, 938}, {12, 77, 1, 938}, {14, 78, 1, 938}, {12, 76, 1, 939}, {13, 77, 1, 939}, {15, 78, 1, 939}, {14, 76, 1, 940}, {15, 77, 1, 940}, {16, 78, 1, 940}, {42, 623, 1, 941}, {43, 624, 1, 941}, {44, 625, 1, 941}, {42, 45, 1, 942}, {43, 46, 1, 942}, {44, 48, 1, 942}, {42, 46, 1, 943}, {43, 47, 1, 943}, {44, 49, 1, 943}, {42, 48, 1, 944}, {43, 49, 1, 944}, {44, 50, 1, 944}, {2, 282, 1, 945}, {1, 287, 1, 946}, {42, 627, 1, 947}, {43, 628, 1, 947}, {44, 629, 1, 947}, {42, 42, 1, 948}, {42, 43, 1, 949}, {42, 44, 1, 950}, {43, 42, 1, 951}, {43, 43, 1, 952}, {43, 44, 1, 953}, {44, 42, 1, 954}, {44, 43, 1, 955}, {44, 44, 1, 956}, {0, 296, 1, 957}, {0, 297, 1, 958}, {11, 85, 1, 959}, {12, 86, 2, 959}, {13, 87, 1, 959}, {14, 89, 2, 959}, {15, 90, 2, 959}, {16, 92, 1, 959}, {11, 86, 1, 960}, {12, 87, 2, 960}, {13, 88, 1, 960}, {14, 90, 2, 960}, {15, 91, 2, 960}, {16, 93, 1, 960}, {11, 89, 1, 961}, {12, 90, 2, 961}, {13, 91, 1, 961}, {14, 92, 2, 961}, {15, 93, 2, 961}, {16, 94, 1, 961}, {8, 85, 1, 962}, {9, 86, 1, 962}, {10, 89, 1, 962}, {8, 86, 1, 963}, {9, 87, 1, 963}, {10, 90, 1, 963}, {8, 87, 1, 964}, {9, 88, 1, 964}, {10, 91, 1, 964}, {8, 89, 1, 965}, {9, 90, 1, 965}, {10, 92, 1, 965}, {8, 90, 1, 966}, {9, 91, 1, 966}, {10, 93, 1, 966}, {8, 92, 1, 967}, {9, 93, 1, 967}, {10, 94, 1, 967}, {79, 425, 1, 968}, {80, 426, 2, 968}, {81, 427, 1, 968}, {82, 428, 2, 968}, {83, 429, 2, 968}, {84, 430, 1, 968}, {17, 79, 1, 969}, {18, 80, 2, 969}, {19, 81, 1, 969}, {21, 82, 2, 969}, {22, 83, 2, 969}, {24, 84, 1, 969}, {18, 79, 1, 970}, {19, 80, 2, 970}, {20, 81, 1, 970}, {22, 82, 2, 970}, {23, 83, 2, 970}, {25, 84, 1, 970}, {21, 79, 1, 971}, {22, 80, 2, 971}, {23, 81, 1, 971}, {24, 82, 2, 971}, {25, 83, 2, 971}, {26, 84, 1, 971}, {45, 51, 1, 972}, {46, 52, 2, 972}, {47, 53, 1, 972}, {48, 55, 2, 972}, {49, 56, 2, 972}, {50, 58, 1, 972}, {45, 52, 1, 973}, {46, 53, 2, 973}, {47, 54, 1, 973}, {48, 56, 2, 973}, {49, 57, 2, 973}, {50, 59, 1, 973}, {45, 55, 1, 974}, {46, 56, 2, 974}, {47, 57, 1, 974}, {48, 58, 2, 974}, {49, 59, 2, 974}, {50, 60, 1, 974}, {11, 79, 1, 975}, {12, 80, 1, 975}, {14, 82, 1, 975}, {11, 80, 1, 976}, {12, 81, 1, 976}, {14, 83, 1, 976}, {11, 82, 1, 977}, {12, 83, 1, 977}, {14, 84, 1, 977}, {12, 79, 1, 978}, {13, 80, 1, 978}, {15, 82, 1, 978}, {12, 80, 1, 979}, {13, 81, 1, 979}, {15, 83, 1, 979}, {12, 82, 1, 980}, {13, 83, 1, 980}, {15, 84, 1, 980}, {14, 79, 1, 981}, {15, 80, 1, 981}, {16, 82, 1, 981}, {14, 80, 1, 982}, {15, 81, 1, 982}, {16, 83, 1, 982}, {14, 82, 1, 983}, {15, 83, 1, 983}, {16, 84, 1, 983}, {17, 76, 1, 984}, {18, 77, 1, 984}, {21, 78, 1, 984}, {18, 76, 1, 985}, {19, 77, 1, 985}, {22, 78, 1, 985}, {19, 76, 1, 986}, {20, 77, 1, 986}, {23, 78, 1, 986}, {21, 76, 1, 987}, {22, 77, 1, 987}, {24, 78, 1, 987}, {22, 76, 1, 988}, {23, 77, 1, 988}, {25, 78, 1, 988}, {24, 76, 1, 989}, {25, 77, 1, 989}, {26, 78, 1, 989}, {42, 51, 1, 990}, {43, 52, 1, 990}, {44, 55, 1, 990}, {42, 52, 1, 991}, {43, 53, 1, 991}, {44, 56, 1, 991}, {42, 53, 1, 992}, {43, 54, 1, 992}, {44, 57, 1, 992}, {42, 55, 1, 993}, {43, 56, 1, 993}, {44, 58, 1, 993}, {42, 56, 1, 994}, {43, 57, 1, 994}, {44, 59, 1, 994}, {42, 58, 1, 995}, {43, 59, 1, 995}, {44, 60, 1, 995}, {45, 645, 1, 996}, {46, 648, 1, 996}, {48, 651, 1, 996}, {46, 646, 1, 996}, {47, 649, 1, 996}, {49, 652, 1, 996}, {48, 647, 1, 996}, {49, 650, 1, 996}, {50, 653, 1, 996}, {45, 45, 1, 997}, {46, 46, 1, 997}, {48, 48, 1, 997}, {45, 46, 1, 998}, {46, 47, 1, 998}, {48, 49, 1, 998}, {45, 48, 1, 999}, {46, 49, 1, 999}, {48, 50, 1, 999}, {46, 45, 1, 1000}, {47, 46, 1, 1000}, {49, 48, 1, 1000}, {46, 46, 1, 1001}, {47, 47, 1, 1001}, {49, 49, 1, 1001}, {46, 48, 1, 1002}, {47, 49, 1, 1002}, {49, 50, 1, 1002}, {48, 45, 1, 1003}, {49, 46, 1, 1003}, {50, 48, 1, 1003}, {48, 46, 1, 1004}, {49, 47, 1, 1004}, {50, 49, 1, 1004}, {48, 48, 1, 1005}, {49, 49, 1, 1005}, {50, 50, 1, 1005}, {2, 283, 1, 1006}, {1, 288, 1, 1007}, {42, 642, 1, 1008}, {43, 643, 1, 1008}, {44, 644, 1, 1008}, {0, 298, 1, 1009}, {0, 299, 1, 1010}, {17, 95, 1, 1011}, {18, 96, 3, 1011}, {19, 97, 3, 1011}, {20, 98, 1, 1011}, {21, 100, 3, 1011}, {22, 101, 6, 1011}, {23, 102, 3, 1011}, {24, 104, 3, 1011}, {25, 105, 3, 1011}, {26, 107, 1, 1011}, {17, 96, 1, 1012}, {18, 97, 3, 1012}, {19, 98, 3, 1012}, {20, 99, 1, 1012}, {21, 101, 3, 1012}, {22, 102, 6, 1012}, {23, 103, 3, 1012}, {24, 105, 3, 1012}, {25, 106, 3, 1012}, {26, 108, 1, 1012}, {17, 100, 1, 1013}, {18, 101, 3, 1013}, {19, 102, 3, 1013}, {20, 103, 1, 1013}, {21, 104, 3, 1013}, {22, 105, 6, 1013}, {23, 106, 3, 1013}, {24, 107, 3, 1013}, {25, 108, 3, 1013}, {26, 109, 1, 1013}, {27, 85, 1, 1014}, {28, 86, 3, 1014}, {29, 87, 3, 1014}, {30, 88, 1, 1014}, {32, 89, 3, 1014}, {33, 90, 6, 1014}, {34, 91, 3, 1014}, {36, 92, 3, 1014}, {37, 93, 3, 1014}, {39, 94, 1, 1014}, {28, 85, 1, 1015}, {29, 86, 3, 1015}, {30, 87, 3, 1015}, {31, 88, 1, 1015}, {33, 89, 3, 1015}, {34, 90, 6, 1015}, {35, 91, 3, 1015}, {37, 92, 3, 1015}, {38, 93, 3, 1015}, {40, 94, 1, 1015}, {32, 85, 1, 1016}, {33, 86, 3, 1016}, {34, 87, 3, 1016}, {35, 88, 1, 1016}, {36, 89, 3, 1016}, {37, 90, 6, 1016}, {38, 91, 3, 1016}, {39, 92, 3, 1016}, {40, 93, 3, 1016}, {41, 94, 1, 1016}, {51, 61, 1, 1017}, {52, 62, 3, 1017}, {53, 63, 3, 1017}, {54, 64, 1, 1017}, {55, 66, 3, 1017}, {56, 67, 6, 1017}, {57, 68, 3, 1017}, {58, 70, 3, 1017}, {59, 71, 3, 1017}, {60, 73, 1, 1017}, {51, 62, 1, 1018}, {52, 63, 3, 1018}, {53, 64, 3, 1018}, {54, 65, 1, 1018}, {55, 67, 3, 1018}, {56, 68, 6, 1018}, {57, 69, 3, 1018}, {58, 71, 3, 1018}, {59, 72, 3, 1018}, {60, 74, 1, 1018}, {51, 66, 1, 1019}, {52, 67, 3, 1019}, {53, 68, 3, 1019}, {54, 69, 1, 1019}, {55, 70, 3, 1019}, {56, 71, 6, 1019}, {57, 72, 3, 1019}, {58, 73, 3, 1019}, {59, 74, 3, 1019}, {60, 75, 1, 1019}, {11, 95, 1, 1020}, {12, 96, 2, 1020}, {13, 97, 1, 1020}, {14, 100, 2, 1020}, {15, 101, 2, 1020}, {16, 104, 1, 1020}, {11, 96, 1, 1021}, {12, 97, 2, 1021}, {13, 98, 1, 1021}, {14, 101, 2, 1021}, {15, 102, 2, 1021}, {16, 105, 1, 1021}, {11, 97, 1, 1022}, {12, 98, 2, 1022}, {13, 99, 1, 1022}, {14, 102, 2, 1022}, {15, 103, 2, 1022}, {16, 106, 1, 1022}, {11, 100, 1, 1023}, {12, 101, 2, 1023}, {13, 102, 1, 1023}, {14, 104, 2, 1023}, {15, 105, 2, 1023}, {16, 107, 1, 1023}, {11, 101, 1, 1024}, {12, 102, 2, 1024}, {13, 103, 1, 1024}, {14, 105, 2, 1024}, {15, 106, 2, 1024}, {16, 108, 1, 1024}, {11, 104, 1, 1025}, {12, 105, 2, 1025}, {13, 106, 1, 1025}, {14, 107, 2, 1025}, {15, 108, 2, 1025}, {16, 109, 1, 1025}, {17, 85, 1, 1026}, {18, 86, 2, 1026}, {19, 87, 1, 1026}, {21, 89, 2, 1026}, {22, 90, 2, 1026}, {24, 92, 1, 1026}, {17, 86, 1, 1027}, {18, 87, 2, 1027}, {19, 88, 1, 1027}, {21, 90, 2, 1027}, {22, 91, 2, 1027}, {24, 93, 1, 1027}, {17, 89, 1, 1028}, {18, 90, 2, 1028}, {19, 91, 1, 1028}, {21, 92, 2, 1028}, {22, 93, 2, 1028}, {24, 94, 1, 1028}, {18, 85, 1, 1029}, {19, 86, 2, 1029}, {20, 87, 1, 1029}, {22, 89, 2, 1029}, {23, 90, 2, 1029}, {25, 92, 1, 1029}, {18, 86, 1, 1030}, {19, 87, 2, 1030}, {20, 88, 1, 1030}, {22, 90, 2, 1030}, {23, 91, 2, 1030}, {25, 93, 1, 1030}, {18, 89, 1, 1031}, {19, 90, 2, 1031}, {20, 91, 1, 1031}, {22, 92, 2, 1031}, {23, 93, 2, 1031}, {25, 94, 1, 1031}, {21, 85, 1, 1032}, {22, 86, 2, 1032}, {23, 87, 1, 1032}, {24, 89, 2, 1032}, {25, 90, 2, 1032}, {26, 92, 1, 1032}, {21, 86, 1, 1033}, {22, 87, 2, 1033}, {23, 88, 1, 1033}, {24, 90, 2, 1033}, {25, 91, 2, 1033}, {26, 93, 1, 1033}, {21, 89, 1, 1034}, {22, 90, 2, 1034}, {23, 91, 1, 1034}, {24, 92, 2, 1034}, {25, 93, 2, 1034}, {26, 94, 1, 1034}, {11, 85, 1, 1035}, {12, 86, 1, 1035}, {14, 89, 1, 1035}, {11, 86, 1, 1036}, {12, 87, 1, 1036}, {14, 90, 1, 1036}, {11, 87, 1, 1037}, {12, 88, 1, 1037}, {14, 91, 1, 1037}, {11, 89, 1, 1038}, {12, 90, 1, 1038}, {14, 92, 1, 1038}, {11, 90, 1, 1039}, {12, 91, 1, 1039}, {14, 93, 1, 1039}, {11, 92, 1, 1040}, {12, 93, 1, 1040}, {14, 94, 1, 1040}, {12, 85, 1, 1041}, {13, 86, 1, 1041}, {15, 89, 1, 1041}, {12, 86, 1, 1042}, {13, 87, 1, 1042}, {15, 90, 1, 1042}, {12, 87, 1, 1043}, {13, 88, 1, 1043}, {15, 91, 1, 1043}, {12, 89, 1, 1044}, {13, 90, 1, 1044}, {15, 92, 1, 1044}, {12, 90, 1, 1045}, {13, 91, 1, 1045}, {15, 93, 1, 1045}, {12, 92, 1, 1046}, {13, 93, 1, 1046}, {15, 94, 1, 1046}, {14, 85, 1, 1047}, {15, 86, 1, 1047}, {16, 89, 1, 1047}, {14, 86, 1, 1048}, {15, 87, 1, 1048}, {16, 90, 1, 1048}, {14, 87, 1, 1049}, {15, 88, 1, 1049}, {16, 91, 1, 1049}, {14, 89, 1, 1050}, {15, 90, 1, 1050}, {16, 92, 1, 1050}, {14, 90, 1, 1051}, {15, 91, 1, 1051}, {16, 93, 1, 1051}, {14, 92, 1, 1052}, {15, 93, 1, 1052}, {16, 94, 1, 1052}, {79, 454, 1, 1053}, {80, 455, 2, 1053}, {81, 456, 1, 1053}, {82, 457, 2, 1053}, {83, 458, 2, 1053}, {84, 459, 1, 1053}, {27, 79, 1, 1054}, {28, 80, 2, 1054}, {29, 81, 1, 1054}, {32, 82, 2, 1054}, {33, 83, 2, 1054}, {36, 84, 1, 1054}, {28, 79, 1, 1055}, {29, 80, 2, 1055}, {30, 81, 1, 1055}, {33, 82, 2, 1055}, {34, 83, 2, 1055}, {37, 84, 1, 1055}, {29, 79, 1, 1056}, {30, 80, 2, 1056}, {31, 81, 1, 1056}, {34, 82, 2, 1056}, {35, 83, 2, 1056}, {38, 84, 1, 1056}, {32, 79, 1, 1057}, {33, 80, 2, 1057}, {34, 81, 1, 1057}, {36, 82, 2, 1057}, {37, 83, 2, 1057}, {39, 84, 1, 1057}, {33, 79, 1, 1058}, {34, 80, 2, 1058}, {35, 81, 1, 1058}, {37, 82, 2, 1058}, {38, 83, 2, 1058}, {40, 84, 1, 1058}, {36, 79, 1, 1059}, {37, 80, 2, 1059}, {38, 81, 1, 1059}, {39, 82, 2, 1059}, {40, 83, 2, 1059}, {41, 84, 1, 1059}, {45, 679, 1, 1060}, {46, 680, 2, 1060}, {47, 681, 1, 1060}, {48, 682, 2, 1060}, {49, 683, 2, 1060}, {50, 684, 1, 1060}, {45, 61, 1, 1061}, {46, 62, 2, 1061}, {47, 63, 1, 1061}, {48, 66, 2, 1061}, {49, 67, 2, 1061}, {50, 70, 1, 1061}, {45, 62, 1, 1062}, {46, 63, 2, 1062}, {47, 64, 1, 1062}, {48, 67, 2, 1062}, {49, 68, 2, 1062}, {50, 71, 1, 1062}, {45, 63, 1, 1063}, {46, 64, 2, 1063}, {47, 65, 1, 1063}, {48, 68, 2, 1063}, {49, 69, 2, 1063}, {50, 72, 1, 1063}, {45, 66, 1, 1064}, {46, 67, 2, 1064}, {47, 68, 1, 1064}, {48, 70, 2, 1064}, {49, 71, 2, 1064}, {50, 73, 1, 1064}, {45, 67, 1, 1065}, {46, 68, 2, 1065}, {47, 69, 1, 1065}, {48, 71, 2, 1065}, {49, 72, 2, 1065}, {50, 74, 1, 1065}, {45, 70, 1, 1066}, {46, 71, 2, 1066}, {47, 72, 1, 1066}, {48, 73, 2, 1066}, {49, 74, 2, 1066}, {50, 75, 1, 1066}, {51, 51, 1, 1067}, {52, 52, 2, 1067}, {53, 53, 1, 1067}, {55, 55, 2, 1067}, {56, 56, 2, 1067}, {58, 58, 1, 1067}, {51, 52, 1, 1068}, {52, 53, 2, 1068}, {53, 54, 1, 1068}, {55, 56, 2, 1068}, {56, 57, 2, 1068}, {58, 59, 1, 1068}, {51, 55, 1, 1069}, {52, 56, 2, 1069}, {53, 57, 1, 1069}, {55, 58, 2, 1069}, {56, 59, 2, 1069}, {58, 60, 1, 1069}, {52, 51, 1, 1070}, {53, 52, 2, 1070}, {54, 53, 1, 1070}, {56, 55, 2, 1070}, {57, 56, 2, 1070}, {59, 58, 1, 1070}, {52, 52, 1, 1071}, {53, 53, 2, 1071}, {54, 54, 1, 1071}, {56, 56, 2, 1071}, {57, 57, 2, 1071}, {59, 59, 1, 1071}, {52, 55, 1, 1072}, {53, 56, 2, 1072}, {54, 57, 1, 1072}, {56, 58, 2, 1072}, {57, 59, 2, 1072}, {59, 60, 1, 1072}, {55, 51, 1, 1073}, {56, 52, 2, 1073}, {57, 53, 1, 1073}, {58, 55, 2, 1073}, {59, 56, 2, 1073}, {60, 58, 1, 1073}, {55, 52, 1, 1074}, {56, 53, 2, 1074}, {57, 54, 1, 1074}, {58, 56, 2, 1074}, {59, 57, 2, 1074}, {60, 59, 1, 1074}, {55, 55, 1, 1075}, {56, 56, 2, 1075}, {57, 57, 1, 1075}, {58, 58, 2, 1075}, {59, 59, 2, 1075}, {60, 60, 1, 1075}, {79, 460, 1, 1076}, {80, 463, 1, 1076}, {82, 466, 1, 1076}, {80, 461, 1, 1076}, {81, 464, 1, 1076}, {83, 467, 1, 1076}, {82, 462, 1, 1076}, {83, 465, 1, 1076}, {84, 468, 1, 1076}, {17, 79, 1, 1077}, {18, 80, 1, 1077}, {21, 82, 1, 1077}, {17, 80, 1, 1078}, {18, 81, 1, 1078}, {21, 83, 1, 1078}, {17, 82, 1, 1079}, {18, 83, 1, 1079}, {21, 84, 1, 1079}, {18, 79, 1, 1080}, {19, 80, 1, 1080}, {22, 82, 1, 1080}, {18, 80, 1, 1081}, {19, 81, 1, 1081}, {22, 83, 1, 1081}, {18, 82, 1, 1082}, {19, 83, 1, 1082}, {22, 84, 1, 1082}, {19, 79, 1, 1083}, {20, 80, 1, 1083}, {23, 82, 1, 1083}, {19, 80, 1, 1084}, {20, 81, 1, 1084}, {23, 83, 1, 1084}, {19, 82, 1, 1085}, {20, 83, 1, 1085}, {23, 84, 1, 1085}, {21, 79, 1, 1086}, {22, 80, 1, 1086}, {24, 82, 1, 1086}, {21, 80, 1, 1087}, {22, 81, 1, 1087}, {24, 83, 1, 1087}, {21, 82, 1, 1088}, {22, 83, 1, 1088}, {24, 84, 1, 1088}, {22, 79, 1, 1089}, {23, 80, 1, 1089}, {25, 82, 1, 1089}, {22, 80, 1, 1090}, {23, 81, 1, 1090}, {25, 83, 1, 1090}, {22, 82, 1, 1091}, {23, 83, 1, 1091}, {25, 84, 1, 1091}, {24, 79, 1, 1092}, {25, 80, 1, 1092}, {26, 82, 1, 1092}, {24, 80, 1, 1093}, {25, 81, 1, 1093}, {26, 83, 1, 1093}, {24, 82, 1, 1094}, {25, 83, 1, 1094}, {26, 84, 1, 1094}, {76, 441, 1, 1095}, {77, 442, 1, 1095}, {78, 443, 1, 1095}, {42, 663, 1, 1096}, {43, 664, 1, 1096}, {44, 665, 1, 1096}, {45, 685, 1, 1097}, {46, 688, 1, 1097}, {48, 691, 1, 1097}, {46, 686, 1, 1097}, {47, 689, 1, 1097}, {49, 692, 1, 1097}, {48, 687, 1, 1097}, {49, 690, 1, 1097}, {50, 693, 1, 1097}, {45, 51, 1, 1098}, {46, 52, 1, 1098}, {48, 55, 1, 1098}, {45, 52, 1, 1099}, {46, 53, 1, 1099}, {48, 56, 1, 1099}, {45, 53, 1, 1100}, {46, 54, 1, 1100}, {48, 57, 1, 1100}, {45, 55, 1, 1101}, {46, 56, 1, 1101}, {48, 58, 1, 1101}, {45, 56, 1, 1102}, {46, 57, 1, 1102}, {48, 59, 1, 1102}, {45, 58, 1, 1103}, {46, 59, 1, 1103}, {48, 60, 1, 1103}, {46, 51, 1, 1104}, {47, 52, 1, 1104}, {49, 55, 1, 1104}, {46, 52, 1, 1105}, {47, 53, 1, 1105}, {49, 56, 1, 1105}, {46, 53, 1, 1106}, {47, 54, 1, 1106}, {49, 57, 1, 1106}, {46, 55, 1, 1107}, {47, 56, 1, 1107}, {49, 58, 1, 1107}, {46, 56, 1, 1108}, {47, 57, 1, 1108}, {49, 59, 1, 1108}, {46, 58, 1, 1109}, {47, 59, 1, 1109}, {49, 60, 1, 1109}, {48, 51, 1, 1110}, {49, 52, 1, 1110}, {50, 55, 1, 1110}, {48, 52, 1, 1111}, {49, 53, 1, 1111}, {50, 56, 1, 1111}, {48, 53, 1, 1112}, {49, 54, 1, 1112}, {50, 57, 1, 1112}, {48, 55, 1, 1113}, {49, 56, 1, 1113}, {50, 58, 1, 1113}, {48, 56, 1, 1114}, {49, 57, 1, 1114}, {50, 59, 1, 1114}, {48, 58, 1, 1115}, {49, 59, 1, 1115}, {50, 60, 1, 1115}, {2, 284, 1, 1116}, {1, 289, 1, 1117}, {42, 676, 1, 1118}, {43, 677, 1, 1118}, {44, 678, 1, 1118}, {45, 713, 1, 1119}, {46, 714, 2, 1119}, {47, 715, 1, 1119}, {48, 716, 2, 1119}, {49, 717, 2, 1119}, {50, 718, 1, 1119}, {27, 95, 1, 1120}, {28, 96, 3, 1120}, {29, 97, 3, 1120}, {30, 98, 1, 1120}, {32, 100, 3, 1120}, {33, 101, 6, 1120}, {34, 102, 3, 1120}, {36, 104, 3, 1120}, {37, 105, 3, 1120}, {39, 107, 1, 1120}, {27, 96, 1, 1121}, {28, 97, 3, 1121}, {29, 98, 3, 1121}, {30, 99, 1, 1121}, {32, 101, 3, 1121}, {33, 102, 6, 1121}, {34, 103, 3, 1121}, {36, 105, 3, 1121}, {37, 106, 3, 1121}, {39, 108, 1, 1121}, {27, 100, 1, 1122}, {28, 101, 3, 1122}, {29, 102, 3, 1122}, {30, 103, 1, 1122}, {32, 104, 3, 1122}, {33, 105, 6, 1122}, {34, 106, 3, 1122}, {36, 107, 3, 1122}, {37, 108, 3, 1122}, {39, 109, 1, 1122}, {28, 95, 1, 1123}, {29, 96, 3, 1123}, {30, 97, 3, 1123}, {31, 98, 1, 1123}, {33, 100, 3, 1123}, {34, 101, 6, 1123}, {35, 102, 3, 1123}, {37, 104, 3, 1123}, {38, 105, 3, 1123}, {40, 107, 1, 1123}, {28, 96, 1, 1124}, {29, 97, 3, 1124}, {30, 98, 3, 1124}, {31, 99, 1, 1124}, {33, 101, 3, 1124}, {34, 102, 6, 1124}, {35, 103, 3, 1124}, {37, 105, 3, 1124}, {38, 106, 3, 1124}, {40, 108, 1, 1124}, {28, 100, 1, 1125}, {29, 101, 3, 1125}, {30, 102, 3, 1125}, {31, 103, 1, 1125}, {33, 104, 3, 1125}, {34, 105, 6, 1125}, {35, 106, 3, 1125}, {37, 107, 3, 1125}, {38, 108, 3, 1125}, {40, 109, 1, 1125}, {32, 95, 1, 1126}, {33, 96, 3, 1126}, {34, 97, 3, 1126}, {35, 98, 1, 1126}, {36, 100, 3, 1126}, {37, 101, 6, 1126}, {38, 102, 3, 1126}, {39, 104, 3, 1126}, {40, 105, 3, 1126}, {41, 107, 1, 1126}, {32, 96, 1, 1127}, {33, 97, 3, 1127}, {34, 98, 3, 1127}, {35, 99, 1, 1127}, {36, 101, 3, 1127}, {37, 102, 6, 1127}, {38, 103, 3, 1127}, {39, 105, 3, 1127}, {40, 106, 3, 1127}, {41, 108, 1, 1127}, {32, 100, 1, 1128}, {33, 101, 3, 1128}, {34, 102, 3, 1128}, {35, 103, 1, 1128}, {36, 104, 3, 1128}, {37, 105, 6, 1128}, {38, 106, 3, 1128}, {39, 107, 3, 1128}, {40, 108, 3, 1128}, {41, 109, 1, 1128}, {61, 61, 1, 1129}, {62, 62, 3, 1129}, {63, 63, 3, 1129}, {64, 64, 1, 1129}, {66, 66, 3, 1129}, {67, 67, 6, 1129}, {68, 68, 3, 1129}, {70, 70, 3, 1129}, {71, 71, 3, 1129}, {73, 73, 1, 1129}, {61, 62, 1, 1130}, {62, 63, 3, 1130}, {63, 64, 3, 1130}, {64, 65, 1, 1130}, {66, 67, 3, 1130}, {67, 68, 6, 1130}, {68, 69, 3, 1130}, {70, 71, 3, 1130}, {71, 72, 3, 1130}, {73, 74, 1, 1130}, {61, 66, 1, 1131}, {62, 67, 3, 1131}, {63, 68, 3, 1131}, {64, 69, 1, 1131}, {66, 70, 3, 1131}, {67, 71, 6, 1131}, {68, 72, 3, 1131}, {70, 73, 3, 1131}, {71, 74, 3, 1131}, {73, 75, 1, 1131}, {62, 61, 1, 1132}, {63, 62, 3, 1132}, {64, 63, 3, 1132}, {65, 64, 1, 1132}, {67, 66, 3, 1132}, {68, 67, 6, 1132}, {69, 68, 3, 1132}, {71, 70, 3, 1132}, {72, 71, 3, 1132}, {74, 73, 1, 1132}, {62, 62, 1, 1133}, {63, 63, 3, 1133}, {64, 64, 3, 1133}, {65, 65, 1, 1133}, {67, 67, 3, 1133}, {68, 68, 6, 1133}, {69, 69, 3, 1133}, {71, 71, 3, 1133}, {72, 72, 3, 1133}, {74, 74, 1, 1133}, {62, 66, 1, 1134}, {63, 67, 3, 1134}, {64, 68, 3, 1134}, {65, 69, 1, 1134}, {67, 70, 3, 1134}, {68, 71, 6, 1134}, {69, 72, 3, 1134}, {71, 73, 3, 1134}, {72, 74, 3, 1134}, {74, 75, 1, 1134}, {66, 61, 1, 1135}, {67, 62, 3, 1135}, {68, 63, 3, 1135}, {69, 64, 1, 1135}, {70, 66, 3, 1135}, {71, 67, 6, 1135}, {72, 68, 3, 1135}, {73, 70, 3, 1135}, {74, 71, 3, 1135}, {75, 73, 1, 1135}, {66, 62, 1, 1136}, {67, 63, 3, 1136}, {68, 64, 3, 1136}, {69, 65, 1, 1136}, {70, 67, 3, 1136}, {71, 68, 6, 1136}, {72, 69, 3, 1136}, {73, 71, 3, 1136}, {74, 72, 3, 1136}, {75, 74, 1, 1136}, {66, 66, 1, 1137}, {67, 67, 3, 1137}, {68, 68, 3, 1137}, {69, 69, 1, 1137}, {70, 70, 3, 1137}, {71, 71, 6, 1137}, {72, 72, 3, 1137}, {73, 73, 3, 1137}, {74, 74, 3, 1137}, {75, 75, 1, 1137}, {17, 95, 1, 1138}, {18, 96, 2, 1138}, {19, 97, 1, 1138}, {21, 100, 2, 1138}, {22, 101, 2, 1138}, {24, 104, 1, 1138}, {17, 96, 1, 1139}, {18, 97, 2, 1139}, {19, 98, 1, 1139}, {21, 101, 2, 1139}, {22, 102, 2, 1139}, {24, 105, 1, 1139}, {17, 97, 1, 1140}, {18, 98, 2, 1140}, {19, 99, 1, 1140}, {21, 102, 2, 1140}, {22, 103, 2, 1140}, {24, 106, 1, 1140}, {17, 100, 1, 1141}, {18, 101, 2, 1141}, {19, 102, 1, 1141}, {21, 104, 2, 1141}, {22, 105, 2, 1141}, {24, 107, 1, 1141}, {17, 101, 1, 1142}, {18, 102, 2, 1142}, {19, 103, 1, 1142}, {21, 105, 2, 1142}, {22, 106, 2, 1142}, {24, 108, 1, 1142}, {17, 104, 1, 1143}, {18, 105, 2, 1143}, {19, 106, 1, 1143}, {21, 107, 2, 1143}, {22, 108, 2, 1143}, {24, 109, 1, 1143}, {18, 95, 1, 1144}, {19, 96, 2, 1144}, {20, 97, 1, 1144}, {22, 100, 2, 1144}, {23, 101, 2, 1144}, {25, 104, 1, 1144}, {18, 96, 1, 1145}, {19, 97, 2, 1145}, {20, 98, 1, 1145}, {22, 101, 2, 1145}, {23, 102, 2, 1145}, {25, 105, 1, 1145}, {18, 97, 1, 1146}, {19, 98, 2, 1146}, {20, 99, 1, 1146}, {22, 102, 2, 1146}, {23, 103, 2, 1146}, {25, 106, 1, 1146}, {18, 100, 1, 1147}, {19, 101, 2, 1147}, {20, 102, 1, 1147}, {22, 104, 2, 1147}, {23, 105, 2, 1147}, {25, 107, 1, 1147}, {18, 101, 1, 1148}, {19, 102, 2, 1148}, {20, 103, 1, 1148}, {22, 105, 2, 1148}, {23, 106, 2, 1148}, {25, 108, 1, 1148}, {18, 104, 1, 1149}, {19, 105, 2, 1149}, {20, 106, 1, 1149}, {22, 107, 2, 1149}, {23, 108, 2, 1149}, {25, 109, 1, 1149}, {21, 95, 1, 1150}, {22, 96, 2, 1150}, {23, 97, 1, 1150}, {24, 100, 2, 1150}, {25, 101, 2, 1150}, {26, 104, 1, 1150}, {21, 96, 1, 1151}, {22, 97, 2, 1151}, {23, 98, 1, 1151}, {24, 101, 2, 1151}, {25, 102, 2, 1151}, {26, 105, 1, 1151}, {21, 97, 1, 1152}, {22, 98, 2, 1152}, {23, 99, 1, 1152}, {24, 102, 2, 1152}, {25, 103, 2, 1152}, {26, 106, 1, 1152}, {21, 100, 1, 1153}, {22, 101, 2, 1153}, {23, 102, 1, 1153}, {24, 104, 2, 1153}, {25, 105, 2, 1153}, {26, 107, 1, 1153}, {21, 101, 1, 1154}, {22, 102, 2, 1154}, {23, 103, 1, 1154}, {24, 105, 2, 1154}, {25, 106, 2, 1154}, {26, 108, 1, 1154}, {21, 104, 1, 1155}, {22, 105, 2, 1155}, {23, 106, 1, 1155}, {24, 107, 2, 1155}, {25, 108, 2, 1155}, {26, 109, 1, 1155}, {85, 526, 1, 1156}, {86, 532, 1, 1156}, {89, 538, 1, 1156}, {86, 527, 2, 1156}, {87, 533, 2, 1156}, {90, 539, 2, 1156}, {87, 528, 1, 1156}, {88, 534, 1, 1156}, {91, 540, 1, 1156}, {89, 529, 2, 1156}, {90, 535, 2, 1156}, {92, 541, 2, 1156}, {90, 530, 2, 1156}, {91, 536, 2, 1156}, {93, 542, 2, 1156}, {92, 531, 1, 1156}, {93, 537, 1, 1156}, {94, 543, 1, 1156}, {27, 85, 1, 1157}, {28, 86, 2, 1157}, {29, 87, 1, 1157}, {32, 89, 2, 1157}, {33, 90, 2, 1157}, {36, 92, 1, 1157}, {27, 86, 1, 1158}, {28, 87, 2, 1158}, {29, 88, 1, 1158}, {32, 90, 2, 1158}, {33, 91, 2, 1158}, {36, 93, 1, 1158}, {27, 89, 1, 1159}, {28, 90, 2, 1159}, {29, 91, 1, 1159}, {32, 92, 2, 1159}, {33, 93, 2, 1159}, {36, 94, 1, 1159}, {28, 85, 1, 1160}, {29, 86, 2, 1160}, {30, 87, 1, 1160}, {33, 89, 2, 1160}, {34, 90, 2, 1160}, {37, 92, 1, 1160}, {28, 86, 1, 1161}, {29, 87, 2, 1161}, {30, 88, 1, 1161}, {33, 90, 2, 1161}, {34, 91, 2, 1161}, {37, 93, 1, 1161}, {28, 89, 1, 1162}, {29, 90, 2, 1162}, {30, 91, 1, 1162}, {33, 92, 2, 1162}, {34, 93, 2, 1162}, {37, 94, 1, 1162}, {29, 85, 1, 1163}, {30, 86, 2, 1163}, {31, 87, 1, 1163}, {34, 89, 2, 1163}, {35, 90, 2, 1163}, {38, 92, 1, 1163}, {29, 86, 1, 1164}, {30, 87, 2, 1164}, {31, 88, 1, 1164}, {34, 90, 2, 1164}, {35, 91, 2, 1164}, {38, 93, 1, 1164}, {29, 89, 1, 1165}, {30, 90, 2, 1165}, {31, 91, 1, 1165}, {34, 92, 2, 1165}, {35, 93, 2, 1165}, {38, 94, 1, 1165}, {32, 85, 1, 1166}, {33, 86, 2, 1166}, {34, 87, 1, 1166}, {36, 89, 2, 1166}, {37, 90, 2, 1166}, {39, 92, 1, 1166}, {32, 86, 1, 1167}, {33, 87, 2, 1167}, {34, 88, 1, 1167}, {36, 90, 2, 1167}, {37, 91, 2, 1167}, {39, 93, 1, 1167}, {32, 89, 1, 1168}, {33, 90, 2, 1168}, {34, 91, 1, 1168}, {36, 92, 2, 1168}, {37, 93, 2, 1168}, {39, 94, 1, 1168}, {33, 85, 1, 1169}, {34, 86, 2, 1169}, {35, 87, 1, 1169}, {37, 89, 2, 1169}, {38, 90, 2, 1169}, {40, 92, 1, 1169}, {33, 86, 1, 1170}, {34, 87, 2, 1170}, {35, 88, 1, 1170}, {37, 90, 2, 1170}, {38, 91, 2, 1170}, {40, 93, 1, 1170}, {33, 89, 1, 1171}, {34, 90, 2, 1171}, {35, 91, 1, 1171}, {37, 92, 2, 1171}, {38, 93, 2, 1171}, {40, 94, 1, 1171}, {36, 85, 1, 1172}, {37, 86, 2, 1172}, {38, 87, 1, 1172}, {39, 89, 2, 1172}, {40, 90, 2, 1172}, {41, 92, 1, 1172}, {36, 86, 1, 1173}, {37, 87, 2, 1173}, {38, 88, 1, 1173}, {39, 90, 2, 1173}, {40, 91, 2, 1173}, {41, 93, 1, 1173}, {36, 89, 1, 1174}, {37, 90, 2, 1174}, {38, 91, 1, 1174}, {39, 92, 2, 1174}, {40, 93, 2, 1174}, {41, 94, 1, 1174}, {51, 779, 1, 1175}, {52, 785, 1, 1175}, {55, 791, 1, 1175}, {52, 780, 2, 1175}, {53, 786, 2, 1175}, {56, 792, 2, 1175}, {53, 781, 1, 1175}, {54, 787, 1, 1175}, {57, 793, 1, 1175}, {55, 782, 2, 1175}, {56, 788, 2, 1175}, {58, 794, 2, 1175}, {56, 783, 2, 1175}, {57, 789, 2, 1175}, {59, 795, 2, 1175}, {58, 784, 1, 1175}, {59, 790, 1, 1175}, {60, 796, 1, 1175}, {51, 61, 1, 1176}, {52, 62, 2, 1176}, {53, 63, 1, 1176}, {55, 66, 2, 1176}, {56, 67, 2, 1176}, {58, 70, 1, 1176}, {51, 62, 1, 1177}, {52, 63, 2, 1177}, {53, 64, 1, 1177}, {55, 67, 2, 1177}, {56, 68, 2, 1177}, {58, 71, 1, 1177}, {51, 63, 1, 1178}, {52, 64, 2, 1178}, {53, 65, 1, 1178}, {55, 68, 2, 1178}, {56, 69, 2, 1178}, {58, 72, 1, 1178}, {51, 66, 1, 1179}, {52, 67, 2, 1179}, {53, 68, 1, 1179}, {55, 70, 2, 1179}, {56, 71, 2, 1179}, {58, 73, 1, 1179}, {51, 67, 1, 1180}, {52, 68, 2, 1180}, {53, 69, 1, 1180}, {55, 71, 2, 1180}, {56, 72, 2, 1180}, {58, 74, 1, 1180}, {51, 70, 1, 1181}, {52, 71, 2, 1181}, {53, 72, 1, 1181}, {55, 73, 2, 1181}, {56, 74, 2, 1181}, {58, 75, 1, 1181}, {52, 61, 1, 1182}, {53, 62, 2, 1182}, {54, 63, 1, 1182}, {56, 66, 2, 1182}, {57, 67, 2, 1182}, {59, 70, 1, 1182}, {52, 62, 1, 1183}, {53, 63, 2, 1183}, {54, 64, 1, 1183}, {56, 67, 2, 1183}, {57, 68, 2, 1183}, {59, 71, 1, 1183}, {52, 63, 1, 1184}, {53, 64, 2, 1184}, {54, 65, 1, 1184}, {56, 68, 2, 1184}, {57, 69, 2, 1184}, {59, 72, 1, 1184}, {52, 66, 1, 1185}, {53, 67, 2, 1185}, {54, 68, 1, 1185}, {56, 70, 2, 1185}, {57, 71, 2, 1185}, {59, 73, 1, 1185}, {52, 67, 1, 1186}, {53, 68, 2, 1186}, {54, 69, 1, 1186}, {56, 71, 2, 1186}, {57, 72, 2, 1186}, {59, 74, 1, 1186}, {52, 70, 1, 1187}, {53, 71, 2, 1187}, {54, 72, 1, 1187}, {56, 73, 2, 1187}, {57, 74, 2, 1187}, {59, 75, 1, 1187}, {55, 61, 1, 1188}, {56, 62, 2, 1188}, {57, 63, 1, 1188}, {58, 66, 2, 1188}, {59, 67, 2, 1188}, {60, 70, 1, 1188}, {55, 62, 1, 1189}, {56, 63, 2, 1189}, {57, 64, 1, 1189}, {58, 67, 2, 1189}, {59, 68, 2, 1189}, {60, 71, 1, 1189}, {55, 63, 1, 1190}, {56, 64, 2, 1190}, {57, 65, 1, 1190}, {58, 68, 2, 1190}, {59, 69, 2, 1190}, {60, 72, 1, 1190}, {55, 66, 1, 1191}, {56, 67, 2, 1191}, {57, 68, 1, 1191}, {58, 70, 2, 1191}, {59, 71, 2, 1191}, {60, 73, 1, 1191}, {55, 67, 1, 1192}, {56, 68, 2, 1192}, {57, 69, 1, 1192}, {58, 71, 2, 1192}, {59, 72, 2, 1192}, {60, 74, 1, 1192}, {55, 70, 1, 1193}, {56, 71, 2, 1193}, {57, 72, 1, 1193}, {58, 73, 2, 1193}, {59, 74, 2, 1193}, {60, 75, 1, 1193}, {79, 487, 1, 1194}, {80, 490, 1, 1194}, {82, 493, 1, 1194}, {80, 488, 1, 1194}, {81, 491, 1, 1194}, {83, 494, 1, 1194}, {82, 489, 1, 1194}, {83, 492, 1, 1194}, {84, 495, 1, 1194}, {45, 740, 1, 1195}, {46, 743, 1, 1195}, {48, 746, 1, 1195}, {46, 741, 1, 1195}, {47, 744, 1, 1195}, {49, 747, 1, 1195}, {48, 742, 1, 1195}, {49, 745, 1, 1195}, {50, 748, 1, 1195}, {51, 798, 1, 1196}, {52, 801, 2, 1196}, {53, 804, 1, 1196}, {55, 807, 2, 1196}, {56, 810, 2, 1196}, {58, 813, 1, 1196}, {52, 799, 1, 1196}, {53, 802, 2, 1196}, {54, 805, 1, 1196}, {56, 808, 2, 1196}, {57, 811, 2, 1196}, {59, 814, 1, 1196}, {55, 800, 1, 1196}, {56, 803, 2, 1196}, {57, 806, 1, 1196}, {58, 809, 2, 1196}, {59, 812, 2, 1196}, {60, 815, 1, 1196}, {51, 51, 1, 1197}, {52, 52, 1, 1197}, {55, 55, 1, 1197}, {51, 52, 1, 1198}, {52, 53, 1, 1198}, {55, 56, 1, 1198}, {51, 53, 